-6.374135613441467285e-01 4.628164172172546387e-01 2.079763561487197876e-01 -1.456136107444763184e-01 -6.239876151084899902e-01 2.837409377098083496e-01 1.851914227008819580e-01 -4.208765327930450439e-01 -4.844083487987518311e-01 -1.045362651348114014e-02 -3.221993446350097656e-01 2.092608660459518433e-01 1.790116876363754272e-01 -4.988913238048553467e-01 1.920325875282287598e+00 8.341102302074432373e-02 1.580222845077514648e-01 6.083737611770629883e-01 2.323821783065795898e-01 -4.074598848819732666e-01 4.038184881210327148e-01 -8.241570740938186646e-02 -4.197540879249572754e-01 -6.694533824920654297e-01 1.133494153618812561e-01 -6.871850490570068359e-01 -1.485338211059570312e-01 1.634875178337097168e+00 -1.341656446456909180e-01 -1.007277891039848328e-01 -3.022899329662322998e-01 2.391429245471954346e-01 -7.833296060562133789e-02 -3.362579345703125000e-01 -4.064416587352752686e-01 1.093893498182296753e-01 -9.777585417032241821e-02 -1.282646656036376953e-01 1.465453952550888062e-01 -6.529619693756103516e-01 1.866226941347122192e-01 5.565926060080528259e-02 -3.394775390625000000e-01 6.661935150623321533e-02 -3.291459977626800537e-01 -3.267055153846740723e-01 2.273355275392532349e-01 2.038873136043548584e-01 -6.298093199729919434e-01 3.723549544811248779e-01 -3.486420214176177979e-01 -4.997121095657348633e-01 -6.945362091064453125e-01 9.560135006904602051e-02 -6.017329096794128418e-01 2.534150481224060059e-01 1.574950218200683594e+00 -3.162088990211486816e-01 9.457880258560180664e-01 -4.290700703859329224e-02 2.212305963039398193e-01 -1.396738886833190918e-01 1.012055501341819763e-01 -3.688263893127441406e-01 2.460155487060546875e-01 -3.032011985778808594e-01 -3.594157695770263672e-01 5.103117227554321289e-01 4.627442657947540283e-01 -2.543833851814270020e-01 -5.539747476577758789e-01 -5.943303108215332031e-01 1.432719826698303223e-01 2.159825563430786133e-01 5.149127244949340820e-01 -8.111386001110076904e-02 -9.522651135921478271e-02 3.783797621726989746e-01 -4.035909771919250488e-01 -1.264085650444030762e+00 -1.770700961351394653e-01 -3.976985514163970947e-01 -2.856508083641529083e-02 3.330764770507812500e-01 5.545410141348838806e-02 6.313536167144775391e-01 2.665759623050689697e-01 5.720867514610290527e-01 1.302166841924190521e-02 -3.386824429035186768e-01 4.161029458045959473e-01 4.494683444499969482e-02 2.684763073921203613e-01 -1.268640607595443726e-01 -6.595132946968078613e-01 3.190261423587799072e-01 8.639448136091232300e-02 -3.201618194580078125e-01 7.533099055290222168e-01 -2.786537408828735352e-01 4.212017655372619629e-01 -7.117431610822677612e-02 1.189604029059410095e-01 -6.083437800407409668e-01 -5.392811894416809082e-01 8.107396364212036133e-01 1.043882593512535095e-01 -3.336356282234191895e-01 5.815686583518981934e-01 1.435213536024093628e-01 -6.328668594360351562e-01 7.751210778951644897e-02 3.966996669769287109e-01 4.992828965187072754e-01 -3.078284263610839844e-01 -3.060178756713867188e-01 -7.160811126232147217e-02 2.907017990946769714e-02 6.257891654968261719e-01 9.209081530570983887e-02 3.771471083164215088e-01 -2.364577353000640869e-01 -4.184143841266632080e-01 -3.097982704639434814e-01 -5.228013992309570312e-01 1.974919736385345459e-01 4.084478616714477539e-01 2.469161748886108398e-01 -9.646946191787719727e-02 5.276098847389221191e-02 -8.371385931968688965e-02 3.111629486083984375e-01 2.854886353015899658e-01 4.694875776767730713e-01 6.948508322238922119e-02 3.050439655780792236e-01 -1.414040625095367432e-01 -1.574725061655044556e-01 5.442767739295959473e-01 -4.303015768527984619e-01 -1.916490048170089722e-01 5.245690345764160156e-01 6.664854288101196289e-01 8.121547847986221313e-02 -2.936768531799316406e-01 -3.653975129127502441e-01 3.005268871784210205e-01 3.235592246055603027e-01 -5.562919974327087402e-01 -2.454259842634201050e-01 2.611636221408843994e-01 -5.402484536170959473e-01 9.302229434251785278e-02 1.939393281936645508e-01 8.643044531345367432e-02 -3.519419133663177490e-01 4.443779587745666504e-02 1.067481115460395813e-01 5.830997973680496216e-02 3.271981477737426758e-01 -3.147760927677154541e-01 5.370178222656250000e-01 2.609395384788513184e-01 4.421865642070770264e-01 -5.678817629814147949e-01 1.585496664047241211e+00 3.893628418445587158e-01 7.657856941223144531e-01 2.880862355232238770e-01 4.381072521209716797e-01 2.603521645069122314e-01 2.739046514034271240e-01 1.253314018249511719e-01 1.213072761893272400e-01 3.830140084028244019e-02 -3.277075588703155518e-01 4.622567892074584961e-01 -3.836058378219604492e-01 8.324303627014160156e-01 -4.876927435398101807e-01 -1.650082468986511230e-01 2.058354765176773071e-01 -1.042798995971679688e+00 3.327842354774475098e-01 -6.313015222549438477e-01 9.104416966438293457e-01 -6.123686432838439941e-01 7.056569457054138184e-01 -2.046583592891693115e-01 8.395431041717529297e-01 -3.034705221652984619e-01 4.524452686309814453e-01 -3.783712089061737061e-01 -1.471777260303497314e-01 -9.347914904356002808e-02 6.540864706039428711e-01 3.528611660003662109e-01 -6.234461069107055664e-01 -2.063761800527572632e-01 2.675629854202270508e-01 1.482868343591690063e-01 -1.024268269538879395e-01 3.943117260932922363e-01 3.782446682453155518e-01 -2.678776979446411133e-01 1.754975914955139160e-01 -2.273810505867004395e-01 8.258843794465065002e-03 2.908361554145812988e-01 2.364340871572494507e-01 4.521146714687347412e-01 2.041292935609817505e-01 3.857050538063049316e-01 6.187363341450691223e-02 3.485626280307769775e-01 1.843922734260559082e-01 -5.294727683067321777e-01 -1.024068117141723633e+00 5.334033966064453125e-01 -5.121126174926757812e-01 2.705933749675750732e-01 3.644936904311180115e-02 2.219526320695877075e-01 -4.357025325298309326e-01 1.295861721038818359e+00 -2.011782489717006683e-04 2.438502013683319092e-01 4.289056360721588135e-01 1.406174898147583008e-01 4.859764873981475830e-01 3.469074964523315430e-01 1.576740622520446777e+00 7.944764494895935059e-01 -3.124193847179412842e-01 5.698090791702270508e-01 -1.753061562776565552e-01 2.004199326038360596e-01 1.362587064504623413e-01 -3.685114085674285889e-01 4.886960685253143311e-01 2.917605936527252197e-01 -1.426741387695074081e-02 3.078007102012634277e-01 -8.126673102378845215e-01 8.039896935224533081e-02 3.488523364067077637e-01 1.117241661995649338e-02 4.254277050495147705e-01 2.410155832767486572e-01 1.544765979051589966e-01 -4.880337715148925781e-01 3.853002488613128662e-01 -4.911450147628784180e-01 -1.006778702139854431e-01 2.391295284032821655e-01 -3.595908582210540771e-01
-6.286334395408630371e-01 4.575026631355285645e-01 2.110313773155212402e-01 -1.729537397623062134e-01 -5.541466474533081055e-01 2.680396139621734619e-01 2.092627286911010742e-01 -4.280596673488616943e-01 -5.108137726783752441e-01 5.256659816950559616e-03 -3.265907168388366699e-01 1.717958152294158936e-01 1.779163628816604614e-01 -4.557889401912689209e-01 1.976742625236511230e+00 6.834239512681961060e-02 1.666183471679687500e-01 6.041696071624755859e-01 1.798180937767028809e-01 -3.458029329776763916e-01 4.673725068569183350e-01 -1.338285952806472778e-01 -3.935388624668121338e-01 -5.920153856277465820e-01 7.328221946954727173e-02 -6.575291752815246582e-01 -1.961430609226226807e-01 1.661833047866821289e+00 -1.315716207027435303e-01 -1.145912557840347290e-01 -3.018186390399932861e-01 2.427700757980346680e-01 -1.269923746585845947e-01 -3.540530204772949219e-01 -3.426578640937805176e-01 1.349955350160598755e-01 -5.138316005468368530e-02 -9.614755958318710327e-02 1.486487686634063721e-01 -6.219914555549621582e-01 1.797262728214263916e-01 3.588960319757461548e-02 -2.792531847953796387e-01 1.225427240133285522e-01 -2.442519664764404297e-01 -3.295285999774932861e-01 2.976357340812683105e-01 1.882121860980987549e-01 -5.984803438186645508e-01 4.568879008293151855e-01 -2.836362719535827637e-01 -5.407031774520874023e-01 -7.128480076789855957e-01 5.676330253481864929e-02 -5.634467005729675293e-01 1.927628815174102783e-01 1.546283245086669922e+00 -3.183527886867523193e-01 9.523389339447021484e-01 -5.045713111758232117e-02 2.618117332458496094e-01 -7.879187166690826416e-02 7.778016477823257446e-02 -4.072912335395812988e-01 3.018374145030975342e-01 -3.145988285541534424e-01 -2.883609235286712646e-01 4.951171875000000000e-01 4.972667098045349121e-01 -2.541294693946838379e-01 -5.972561836242675781e-01 -6.290359497070312500e-01 7.367110997438430786e-02 2.546689808368682861e-01 4.791556000709533691e-01 -6.590449716895818710e-03 -4.042830690741539001e-02 3.625507652759552002e-01 -4.377570748329162598e-01 -1.300780296325683594e+00 -2.172186225652694702e-01 -3.433364331722259521e-01 -4.780854284763336182e-02 2.662037611007690430e-01 9.730162471532821655e-02 5.755817294120788574e-01 2.896480560302734375e-01 5.697590112686157227e-01 -3.049713186919689178e-02 -3.907264471054077148e-01 3.614865541458129883e-01 9.139341861009597778e-02 3.286843597888946533e-01 -8.153661340475082397e-02 -6.799121499061584473e-01 3.708468973636627197e-01 1.588851660490036011e-01 -4.019569158554077148e-01 7.886332869529724121e-01 -2.232442349195480347e-01 4.340848028659820557e-01 -4.990090429782867432e-02 1.935778260231018066e-01 -5.058571100234985352e-01 -5.537229180335998535e-01 7.486963868141174316e-01 1.281373202800750732e-01 -3.637350797653198242e-01 5.851908922195434570e-01 1.831642687320709229e-01 -6.288018822669982910e-01 1.069534718990325928e-01 3.761090040206909180e-01 5.239514708518981934e-01 -3.194058239459991455e-01 -3.591184318065643311e-01 -5.140915513038635254e-02 4.483505617827177048e-03 6.380020380020141602e-01 5.551073700189590454e-02 3.445055186748504639e-01 -2.917188704013824463e-01 -3.802529871463775635e-01 -3.191494047641754150e-01 -4.994554519653320312e-01 1.584097445011138916e-01 4.953178167343139648e-01 1.925625503063201904e-01 -1.472065746784210205e-01 8.045122772455215454e-02 -7.713580876588821411e-02 3.020339310169219971e-01 3.709728717803955078e-01 4.567416608333587646e-01 1.804686337709426880e-01 3.515157103538513184e-01 -1.281162500381469727e-01 -1.564495414495468140e-01 4.628551304340362549e-01 -4.079833626747131348e-01 -2.104665488004684448e-01 5.279219746589660645e-01 7.077584266662597656e-01 1.303804963827133179e-01 -2.148267924785614014e-01 -3.866245746612548828e-01 3.274796605110168457e-01 2.498831003904342651e-01 -5.482584834098815918e-01 -2.502409219741821289e-01 2.837722301483154297e-01 -5.982860922813415527e-01 1.728706061840057373e-02 2.331548184156417847e-01 2.204006910324096680e-02 -3.083315491676330566e-01 -8.738900534808635712e-03 5.872400850057601929e-02 9.316215664148330688e-02 2.974489033222198486e-01 -3.436290025711059570e-01 4.792269468307495117e-01 2.904186248779296875e-01 4.421266913414001465e-01 -5.278207063674926758e-01 1.669844269752502441e+00 3.948839306831359863e-01 7.106285095214843750e-01 3.644586503505706787e-01 5.072046518325805664e-01 2.366367727518081665e-01 3.196552693843841553e-01 1.643163412809371948e-01 7.578174024820327759e-02 -6.590975448489189148e-03 -3.504447042942047119e-01 4.073894619941711426e-01 -3.079099953174591064e-01 7.472947239875793457e-01 -4.642302095890045166e-01 -1.702275425195693970e-01 2.148381471633911133e-01 -9.747272729873657227e-01 3.214981853961944580e-01 -6.128836274147033691e-01 9.110115170478820801e-01 -5.475686788558959961e-01 7.191224694252014160e-01 -2.431783378124237061e-01 7.533602714538574219e-01 -2.479007840156555176e-01 4.474733471870422363e-01 -3.776676356792449951e-01 -1.080058962106704712e-01 -6.757606565952301025e-02 6.841333508491516113e-01 3.110727667808532715e-01 -6.247287392616271973e-01 -1.836355775594711304e-01 2.323091626167297363e-01 1.965210139751434326e-01 -6.136616319417953491e-02 3.778021633625030518e-01 3.729204237461090088e-01 -2.745968103408813477e-01 2.415894120931625366e-01 -2.129023820161819458e-01 -3.733455389738082886e-02 2.423653751611709595e-01 2.386295050382614136e-01 3.858400881290435791e-01 2.334212958812713623e-01 3.454053103923797607e-01 8.682163804769515991e-02 3.998169004917144775e-01 2.246674001216888428e-01 -5.493387579917907715e-01 -1.069499611854553223e+00 4.737716317176818848e-01 -5.181493759155273438e-01 2.451102584600448608e-01 3.268749639391899109e-02 2.082386910915374756e-01 -4.115554094314575195e-01 1.328621625900268555e+00 -4.959233105182647705e-02 2.817509770393371582e-01 4.200001060962677002e-01 1.238160952925682068e-01 5.047169327735900879e-01 2.926881015300750732e-01 1.556380391120910645e+00 7.751411199569702148e-01 -2.666052281856536865e-01 5.237063765525817871e-01 -1.230692639946937561e-01 2.852805554866790771e-01 1.072194352746009827e-01 -2.976760268211364746e-01 4.444101750850677490e-01 3.041994571685791016e-01 -2.480514533817768097e-02 2.761182785034179688e-01 -8.238348364830017090e-01 7.413406670093536377e-02 3.254247605800628662e-01 -2.326647005975246429e-02 3.844341337680816650e-01 1.339122802019119263e-01 1.647092103958129883e-01 -4.356310069561004639e-01 4.590892195701599121e-01 -4.874506294727325439e-01 -9.668733179569244385e-02 1.969846785068511963e-01 -3.491958975791931152e-01
6.747711449861526489e-02 -2.084859311580657959e-01 -1.810920052230358124e-02 -5.371391028165817261e-02 9.009736031293869019e-02 -3.562239110469818115e-01 -4.559261500835418701e-01 1.426010429859161377e-01 -2.520375512540340424e-02 -1.920100152492523193e-01 1.540343612432479858e-01 1.573881357908248901e-01 -6.195881962776184082e-02 6.271832156926393509e-03 -3.156565874814987183e-02 -8.477746695280075073e-02 3.107956983149051666e-02 5.514567717909812927e-02 -1.491262763738632202e-01 1.517694722861051559e-02 5.404549464583396912e-02 -2.891186997294425964e-02 4.687988013029098511e-02 2.079223990440368652e-01 -1.030014678835868835e-01 3.672082424163818359e-01 8.786741644144058228e-02 -4.417617991566658020e-02 -1.002540141344070435e-01 -8.542762696743011475e-02 3.338409066200256348e-01 -5.352963879704475403e-02 1.655687093734741211e-01 8.104942739009857178e-03 1.353053003549575806e-01 9.862498193979263306e-02 3.855139389634132385e-02 6.801725924015045166e-02 1.864741742610931396e-02 1.497563123703002930e-01 -1.066550686955451965e-01 4.893703013658523560e-02 3.523366898298263550e-02 1.105865597724914551e+00 -5.469376686960458755e-03 4.142874851822853088e-02 -6.026053801178932190e-02 3.033216297626495361e-01 1.397157553583383560e-02 -2.183365523815155029e-01 3.012210130691528320e-01 2.639913260936737061e-01 1.602628976106643677e-01 6.207863613963127136e-02 -1.107444986701011658e-01 5.471329204738140106e-04 1.205738168209791183e-03 3.306242823600769043e-02 -3.104886785149574280e-02 -8.471487089991569519e-03 -2.538438439369201660e-01 -9.828662872314453125e-02 -2.017911672592163086e-01 8.920699357986450195e-02 -1.359659433364868164e-01 1.918871104717254639e-01 -1.216409727931022644e-01 -5.547799468040466309e-01 -5.939643085002899170e-02 6.765191256999969482e-02 -2.595161795616149902e-01 1.045331284403800964e-01 3.954598307609558105e-02 -9.292632341384887695e-02 -2.631674408912658691e-01 2.644579112529754639e-01 -6.358673796057701111e-03 -6.096674129366874695e-02 1.134975031018257141e-01 8.204482495784759521e-02 3.792840242385864258e-01 3.673731088638305664e-01 2.115955017507076263e-02 -8.712083846330642700e-02 1.321213543415069580e-01 1.965015977621078491e-01 -5.219657439738512039e-03 -7.754741609096527100e-02 6.550442427396774292e-02 -1.040386930108070374e-01 -8.723650872707366943e-02 -3.429455682635307312e-02 -3.673094883561134338e-02 -4.266013577580451965e-02 1.242868453264236450e-01 -6.687435507774353027e-02 -5.222934857010841370e-02 -3.460396528244018555e-01 -4.111465811729431152e-01 -2.491402626037597656e-01 -1.988868862390518188e-01 1.744935661554336548e-02 -2.213158644735813141e-02 1.452262401580810547e-01 -5.321140289306640625e-01 1.276870965957641602e-01 -5.841431766748428345e-02 -1.145132631063461304e-02 -7.879366725683212280e-02 2.751739509403705597e-02 2.283913344144821167e-01 -5.186811834573745728e-02 -1.892029307782649994e-02 1.484124362468719482e-02 1.130414605140686035e-01 2.685293927788734436e-02 3.274504095315933228e-02 -3.033589422702789307e-01 -7.208094745874404907e-02 -8.132763952016830444e-02 -2.280710935592651367e-01 1.572552882134914398e-02 -5.909339338541030884e-02 1.226604077965021133e-02 3.555342927575111389e-02 -3.657987713813781738e-02 -1.074808686971664429e-01 1.849448382854461670e-01 3.567717224359512329e-02 -1.351387053728103638e-01 1.811651438474655151e-01 6.431448459625244141e-02 -1.413963641971349716e-02 -1.784896254539489746e-01 2.272777259349822998e-01 -6.163423135876655579e-02 4.209806676954030991e-03 -1.731577277183532715e+00 -1.218915879726409912e-01 1.066642850637435913e-01 7.833232730627059937e-02 1.007733028382062912e-02 -1.090547367930412292e-01 -1.275888234376907349e-01 3.987710550427436829e-02 1.022706627845764160e-01 -3.012690134346485138e-02 -1.518919765949249268e-01 -3.686342388391494751e-03 -3.518084809184074402e-02 -1.247415319085121155e-01 4.723436757922172546e-02 -3.668057033792138100e-03 -9.148068726062774658e-02 -1.320635080337524414e-01 -1.259365826845169067e-01 3.474866971373558044e-02 5.518916249275207520e-02 5.951271578669548035e-02 3.484140336513519287e-02 2.262403219938278198e-01 -4.512256383895874023e-02 -4.549811184406280518e-01 -1.287452131509780884e-02 -1.380377411842346191e-01 9.195424616336822510e-03 -1.861672252416610718e-01 6.534716812893748283e-04 -7.411665283143520355e-03 -7.667245715856552124e-02 -5.820634216070175171e-02 2.925813198089599609e-02 3.575872257351875305e-02 -1.027314513921737671e-01 -4.976146519184112549e-01 1.694903820753097534e-01 -6.905774585902690887e-03 1.901585757732391357e-01 -3.605800867080688477e-02 5.697808787226676941e-02 -1.999568045139312744e-01 -5.690230429172515869e-02 -9.924278594553470612e-03 -1.216786652803421021e-01 3.123372495174407959e-01 -2.292054295539855957e-01 1.468981504440307617e-01 7.514355331659317017e-02 3.528237044811248779e-01 -1.026304140686988831e-01 -4.314313456416130066e-02 -1.958948932588100433e-02 1.229007169604301453e-01 -1.377151310443878174e-01 -2.402647584676742554e-02 -8.118896931409835815e-02 -3.554593771696090698e-02 5.612493306398391724e-02 -8.350309729576110840e-02 -1.487532705068588257e-01 -1.740585416555404663e-01 -1.379107534885406494e-01 -1.131444945931434631e-01 -1.070550363510847092e-02 1.224943622946739197e-01 3.083392046391963959e-02 3.550059348344802856e-02 3.340006619691848755e-02 -1.420703083276748657e-01 3.991939127445220947e-01 -1.242711842060089111e-01 -6.767770648002624512e-02 -8.868063986301422119e-02 2.388413399457931519e-01 -3.167592361569404602e-02 -6.165261939167976379e-02 2.039573341608047485e-01 1.037457287311553955e-01 1.640130877494812012e-01 1.545558497309684753e-02 -6.414313614368438721e-02 -5.452942252159118652e-01 1.559630036354064941e-01 -2.980075590312480927e-02 -8.417861536145210266e-03 -4.290284216403961182e-02 -1.766005344688892365e-02 -1.730316728353500366e-01 6.073208525776863098e-03 -1.364091634750366211e-01 -4.647230729460716248e-03 -1.049493476748466492e-01 1.389415711164474487e-01 8.811122924089431763e-02 3.247528104111552238e-03 -1.307062059640884399e-01 -1.416093856096267700e-01 2.106984704732894897e-01 -1.177591606974601746e-01 -5.697351694107055664e-02 1.480613797903060913e-01 -9.191483259201049805e-02 -8.933176100254058838e-02 9.630437940359115601e-02 1.105447292327880859e+00 -4.015596210956573486e-02 4.628199040889739990e-01 3.277670145034790039e-01 -3.034334480762481689e-01 1.251174509525299072e-01 5.092310905456542969e-02 -1.248510647565126419e-02 9.429030865430831909e-02 -2.306592836976051331e-02 -3.562342375516891479e-02 -3.445155918598175049e-02
-1.643164753913879395e-01 -1.623636297881603241e-02 -5.025891959667205811e-02 -1.081373356282711029e-02 -2.756946980953216553e-01 6.820073723793029785e-02 1.077144294977188110e-01 7.601207587867975235e-03 -1.423086784780025482e-02 8.669218420982360840e-02 -5.168278142809867859e-02 1.027470380067825317e-01 1.021000444889068604e-01 2.194427512586116791e-02 -5.349053815007209778e-02 1.189820021390914917e-01 -2.020663395524024963e-02 1.052681803703308105e-01 1.640939712524414062e-01 -6.879311054944992065e-02 -7.711041718721389771e-02 -3.185178153216838837e-03 5.157101526856422424e-02 -1.342383772134780884e-01 4.713270813226699829e-02 -1.072162836790084839e-01 -1.145248301327228546e-02 -1.064641587436199188e-02 -7.096359878778457642e-02 -2.383254021406173706e-01 -4.556916356086730957e-01 -7.756046205759048462e-02 -1.303924471139907837e-01 -2.509992420673370361e-01 -4.635118842124938965e-01 1.036130115389823914e-01 5.033442750573158264e-02 6.250257790088653564e-02 6.182951927185058594e-01 -3.798773884773254395e-02 -1.565249562263488770e-01 -3.492058441042900085e-02 -6.218115612864494324e-02 3.566225618124008179e-02 -2.884277515113353729e-02 -1.181068420410156250e-01 -9.180960804224014282e-02 -5.484851822257041931e-02 2.930782437324523926e-01 1.775556476786732674e-03 -9.088021516799926758e-02 -5.863499641418457031e-01 3.162392228841781616e-02 -2.515459991991519928e-02 6.890697032213211060e-02 -9.560219198465347290e-02 1.410666704177856445e-01 -4.784039035439491272e-02 6.316327303647994995e-02 6.829393655061721802e-02 -5.619599670171737671e-02 1.394436210393905640e-01 -1.773225069046020508e-01 9.824925661087036133e-02 1.662759423255920410e+00 -1.861984655261039734e-02 -3.988896030932664871e-03 -1.307871639728546143e-01 2.799460887908935547e+00 1.253072768449783325e-01 2.691022865474224091e-02 5.271083675324916840e-03 1.236153170466423035e-01 6.978049874305725098e-02 1.156558245420455933e-01 -1.813814789056777954e-01 -6.798735260963439941e-02 -2.742335759103298187e-02 -6.772325187921524048e-02 4.307476058602333069e-02 8.292657881975173950e-02 -1.769585907459259033e-01 8.596802502870559692e-02 -1.813063770532608032e-02 -6.403446942567825317e-02 8.711569756269454956e-02 7.010997086763381958e-02 -3.101100623607635498e-01 -2.577043175697326660e-01 2.357307262718677521e-02 1.812383905053138733e-02 -2.305810339748859406e-03 8.347168564796447754e-03 -6.932231783866882324e-02 -6.893812119960784912e-02 -4.706098139286041260e-02 -1.343681514263153076e-01 3.037159517407417297e-02 9.195214509963989258e-02 5.059759318828582764e-02 -2.239865362644195557e-01 2.903880551457405090e-02 -1.269547492265701294e-01 1.499715447425842285e-01 8.655278384685516357e-02 -3.806228190660476685e-02 6.546392291784286499e-02 -2.757486887276172638e-03 -1.548345293849706650e-02 -8.112584948539733887e-01 -1.400499045848846436e-01 -3.617919981479644775e-01 3.906983416527509689e-03 -4.894950613379478455e-02 -1.738055795431137085e-01 2.233535796403884888e-02 1.862117499113082886e-01 -7.231891900300979614e-02 1.943786144256591797e-01 1.180006936192512512e-02 3.285820130258798599e-03 2.524121850728988647e-02 9.489902853965759277e-02 1.585272885859012604e-02 -5.570184066891670227e-02 1.103594750165939331e-01 1.094779297709465027e-01 -8.707002550363540649e-02 -3.846949934959411621e-01 1.191339567303657532e-01 -3.143129348754882812e-01 -7.174309343099594116e-02 -8.082692511379718781e-04 1.705690519884228706e-03 -1.119159460067749023e-01 -1.144140735268592834e-01 -2.333887368440628052e-01 5.518309026956558228e-02 -4.806532710790634155e-02 3.868001401424407959e-01 3.780840933322906494e-01 6.823091208934783936e-02 2.652680687606334686e-02 1.591291576623916626e-01 -2.560861222445964813e-02 6.157543882727622986e-02 -4.603577405214309692e-02 1.690660864114761353e-01 5.023867487907409668e-01 -3.631782531738281250e-01 -3.841265290975570679e-02 1.773728579282760620e-01 -1.142400622367858887e+00 -4.775519948452711105e-03 2.265849858522415161e-01 3.548025386407971382e-03 4.308663308620452881e-02 2.958601415157318115e-01 1.245085075497627258e-01 5.898798257112503052e-02 -2.592461407184600830e-01 2.615437209606170654e-01 -3.396119773387908936e-01 -8.332923799753189087e-02 6.026920303702354431e-02 2.311235815286636353e-01 1.164096370339393616e-01 -1.853289082646369934e-02 2.802131772041320801e-01 2.617190126329660416e-03 -7.495094835758209229e-02 -2.725953422486782074e-02 -1.100665032863616943e-01 -8.134295232594013214e-03 1.414384543895721436e-01 -4.405787587165832520e-02 -1.704776138067245483e-01 -1.912637427449226379e-02 -2.999774739146232605e-02 2.684778273105621338e-01 -3.973015025258064270e-02 1.322056800127029419e-01 -8.248036727309226990e-03 -6.083584427833557129e-01 5.918728653341531754e-03 2.692027807235717773e+00 -4.286449551582336426e-01 1.194604337215423584e-01 -1.570772379636764526e-01 -2.963942475616931915e-02 1.743102073669433594e-02 6.719075441360473633e-01 5.899467319250106812e-02 1.211850494146347046e-01 -8.918122947216033936e-02 5.805813521146774292e-02 1.632238551974296570e-02 -7.860866189002990723e-02 -9.523849934339523315e-02 1.322786509990692139e-01 2.155705690383911133e-01 -1.131798028945922852e-01 -1.434300467371940613e-02 -7.058841735124588013e-02 -7.167816907167434692e-02 6.858123838901519775e-02 -1.814161310903728008e-03 3.522854298353195190e-02 2.205057591199874878e-01 2.586236000061035156e-01 -4.345263913273811340e-02 2.067749854177236557e-03 -2.556496113538742065e-02 5.310234054923057556e-02 -4.546103626489639282e-02 -2.703517489135265350e-02 3.707301616668701172e-01 7.169005274772644043e-02 -6.460195034742355347e-02 -1.387667953968048096e-01 -3.486869931221008301e-01 1.395222991704940796e-01 2.128475718200206757e-02 -7.217659801244735718e-02 -1.796129532158374786e-02 2.791358828544616699e-01 2.804497443139553070e-02 2.315091155469417572e-02 -3.190780058503150940e-02 1.343954503536224365e-01 -7.501380443572998047e-01 -4.519968479871749878e-02 9.367211163043975830e-02 9.897596389055252075e-02 2.497017756104469299e-02 -7.973204553127288818e-02 -1.298783868551254272e-01 -6.567891687154769897e-02 1.125349327921867371e-01 5.775104835629463196e-02 1.055779978632926941e-01 -2.685468271374702454e-02 -1.216276586055755615e-01 -9.498342871665954590e-03 -1.187557578086853027e-01 4.564391076564788818e-02 -2.726591527462005615e-01 9.845940023660659790e-02 2.072725594043731689e-01 -1.521470993757247925e-01 3.395099043846130371e-01 3.667218610644340515e-02 3.427773714065551758e-01 1.788070321083068848e+00 1.418095380067825317e-01 -5.403694510459899902e-01
-2.064622491598129272e-01 -7.145152892917394638e-03 -4.715679213404655457e-02 -1.991070061922073364e-02 -1.317719072103500366e-01 -2.346329018473625183e-02 1.347927302122116089e-01 -9.254855103790760040e-03 -1.122749876230955124e-02 6.590232998132705688e-02 -1.375077813863754272e-01 -1.687089353799819946e-02 -1.182964205741882324e+00 -1.303878147155046463e-02 1.589379459619522095e-02 -2.132003754377365112e-02 6.472978740930557251e-02 2.055509239435195923e-01 1.304164230823516846e-01 -8.600940555334091187e-02 -1.045185998082160950e-01 4.271392826922237873e-04 3.499484434723854065e-02 -2.358380332589149475e-02 -9.361132048070430756e-03 6.572382897138595581e-02 3.619937226176261902e-02 -2.543922327458858490e-02 -2.141962051391601562e-01 -1.015330776572227478e-01 -4.802432656288146973e-01 -1.087638139724731445e-01 -4.341010749340057373e-02 3.336282968521118164e-01 3.013081848621368408e-01 9.808653593063354492e-02 3.086332976818084717e-02 7.267798483371734619e-02 7.101192474365234375e-01 -1.411586105823516846e-01 -6.427577883005142212e-02 1.103335842490196228e-01 -2.964247390627861023e-02 -5.314029380679130554e-02 5.929160118103027344e-02 -6.473176181316375732e-03 -4.377399012446403503e-02 -1.679004430770874023e-01 1.284300833940505981e-01 -9.203587542288005352e-04 -1.047554984688758850e-01 -5.257821679115295410e-01 -6.377391982823610306e-03 -2.776411548256874084e-02 -2.516760230064392090e-01 -1.041456460952758789e-01 1.634753644466400146e-01 -6.655778270214796066e-03 -4.825085774064064026e-02 -5.045976117253303528e-02 -1.131645031273365021e-02 1.368819773197174072e-01 -2.052830159664154053e-02 7.677999138832092285e-02 -8.954825401306152344e-01 1.129150018095970154e-01 -6.454138755798339844e-01 -2.142893224954605103e-01 -7.915610074996948242e-01 -1.028159335255622864e-01 2.038650587201118469e-02 -5.845460668206214905e-02 2.603985369205474854e-01 5.494070425629615784e-02 9.721333533525466919e-02 -2.188648283481597900e-01 -1.517138257622718811e-02 -4.779943451285362244e-02 -4.806383326649665833e-02 -1.527407299727201462e-02 -6.870391964912414551e-02 -1.666530370712280273e-01 2.026736587285995483e-01 3.944213315844535828e-02 -2.292425837367773056e-03 3.345964476466178894e-02 4.735453799366950989e-02 -3.442973494529724121e-01 -3.362103998661041260e-01 2.278965339064598083e-02 -3.863352164626121521e-02 3.122961521148681641e-02 4.774093627929687500e-03 -1.263685151934623718e-02 -4.319733008742332458e-03 -5.974753946065902710e-02 -1.024807691574096680e-01 2.490330673754215240e-02 -1.843805983662605286e-02 8.567424118518829346e-02 -1.585272848606109619e-01 8.366771042346954346e-02 3.576722741127014160e-02 1.086112782359123230e-01 -6.891531404107809067e-03 -8.675566315650939941e-02 -3.495639562606811523e-02 -4.970338568091392517e-02 -2.826194278895854950e-02 1.542425990104675293e+00 -1.859635710716247559e-01 -2.049797587096691132e-02 1.519790478050708771e-02 6.198994815349578857e-02 -1.441574841737747192e-01 -9.733999520540237427e-02 -1.224457621574401855e-01 1.804429455660283566e-03 4.039096236228942871e-01 -8.197714388370513916e-02 1.322435289621353149e-01 7.673624902963638306e-02 -9.326138533651828766e-03 8.103647083044052124e-02 5.060033127665519714e-02 -2.959805913269519806e-02 1.379557251930236816e-01 5.877794697880744934e-03 3.166881576180458069e-02 -7.053370028734207153e-02 -2.955168187618255615e-01 -5.113800987601280212e-02 1.194249372929334641e-02 2.022238820791244507e-02 -1.120975241065025330e-01 2.494573831558227539e+00 1.382549256086349487e-01 4.635650515556335449e-01 -3.136205673217773438e-02 3.747846186161041260e-01 -7.909088134765625000e-01 4.750145226716995239e-02 -5.080905277281999588e-03 6.546281278133392334e-02 4.795309156179428101e-03 -1.146035734564065933e-02 3.908319771289825439e-02 1.305072754621505737e-01 4.151831865310668945e-01 -4.136206507682800293e-01 1.227362379431724548e-01 1.442549079656600952e-01 1.206280469894409180e+00 -1.694500632584095001e-02 -2.936619520187377930e-01 2.861469052731990814e-02 1.640617549419403076e-01 1.892883777618408203e-01 -6.387445330619812012e-02 -1.398384124040603638e-01 3.799280524253845215e-01 3.141763806343078613e-01 -2.464864403009414673e-01 -2.439799485728144646e-03 4.669138416647911072e-02 2.035775780677795410e-01 8.221694827079772949e-02 -2.543792687356472015e-02 -1.824664026498794556e-01 1.895438320934772491e-02 -1.089551672339439392e-01 -4.368459060788154602e-02 1.467413902282714844e-01 6.180526688694953918e-03 7.693988084793090820e-02 -2.130877673625946045e-01 -4.722196981310844421e-02 2.191969379782676697e-02 -2.650327794253826141e-02 3.495030105113983154e-01 -8.804729580879211426e-02 -1.098859757184982300e-01 5.179549567401409149e-03 8.187603950500488281e-01 9.385843575000762939e-02 3.071024179458618164e+00 -4.328490793704986572e-01 9.961689263582229614e-02 -1.825574487447738647e-01 -1.680053584277629852e-02 -1.433466654270887375e-02 -3.123437762260437012e-01 5.753429234027862549e-02 1.367680430412292480e-01 -2.400626242160797119e-02 6.132318824529647827e-02 1.877900213003158569e-02 -1.695051044225692749e-02 -1.157748028635978699e-01 1.229582950472831726e-01 3.611568212509155273e-01 -5.355455726385116577e-02 3.543103113770484924e-02 -1.153705343604087830e-01 -8.035513758659362793e-02 -1.252812426537275314e-02 3.243507817387580872e-02 -3.341310918331146240e-01 2.404393404722213745e-01 4.079256355762481689e-01 1.850243844091892242e-02 -3.958975896239280701e-03 1.232838332653045654e-01 9.363798052072525024e-02 -5.243551358580589294e-02 8.112803101539611816e-02 -2.120899707078933716e-01 6.487457454204559326e-02 -2.152373269200325012e-02 3.274374306201934814e-01 4.613170772790908813e-02 2.057698518037796021e-01 5.058293789625167847e-02 1.107230111956596375e-01 1.133831311017274857e-02 -3.820527810603380203e-03 3.778849914669990540e-02 -6.889174133539199829e-02 3.497838973999023438e-02 3.402079641819000244e-02 7.273957133293151855e-01 -3.891615895554423332e-03 6.205185875296592712e-02 -4.271494224667549133e-02 3.015042282640933990e-03 -7.195107638835906982e-02 -1.158384382724761963e-01 -5.114552751183509827e-02 1.627854071557521820e-02 2.754010632634162903e-02 1.726671904325485229e-01 -4.144850745797157288e-02 -8.755087107419967651e-02 -1.500991135835647583e-01 -8.455076068639755249e-02 4.813401494175195694e-03 -1.589193046092987061e-01 9.008716046810150146e-02 1.752279847860336304e-01 -1.347989737987518311e-01 -7.130592465400695801e-01 2.971592918038368225e-02 3.236909210681915283e-01 -4.625860229134559631e-02 -2.561562135815620422e-02 -4.595417380332946777e-01
-2.691687047481536865e-01 2.119253389537334442e-02 1.291298586875200272e-02 1.484123617410659790e-02 -1.856467425823211670e-01 1.466345135122537613e-02 1.881969124078750610e-01 4.515590891242027283e-02 -6.857246626168489456e-03 7.598321884870529175e-02 -9.828771650791168213e-02 5.314097180962562561e-02 4.893780872225761414e-02 -5.129145085811614990e-02 -4.772649332880973816e-02 2.757047303020954132e-02 -1.034705806523561478e-02 8.375168591737747192e-02 1.546352058649063110e-01 -7.701928168535232544e-02 -6.031605973839759827e-02 -1.159512922167778015e-01 9.786826558411121368e-03 -1.447024047374725342e-01 -1.843916065990924835e-02 -5.298929288983345032e-02 -4.644933342933654785e-02 -4.901191964745521545e-02 -7.900398224592208862e-02 8.649095296859741211e-01 -5.666483044624328613e-01 1.095630228519439697e-02 -1.704406291246414185e-01 -2.471867650747299194e-01 1.367435753345489502e-01 1.265525668859481812e-01 1.911038905382156372e-02 3.956882283091545105e-02 7.599775195121765137e-01 -4.068945348262786865e-02 -1.315327733755111694e-01 3.767531365156173706e-02 1.315906196832656860e-01 -2.706165984272956848e-02 -9.872846305370330811e-03 -8.080717176198959351e-02 -5.035018175840377808e-02 -9.232503175735473633e-02 2.619650959968566895e-01 -1.488142274320125580e-02 -4.012164101004600525e-02 -4.823170006275177002e-01 -7.677659392356872559e-02 2.698630839586257935e-02 -2.680946290493011475e-01 -7.927060127258300781e-02 1.867810785770416260e-01 6.688388064503669739e-03 4.261928424239158630e-02 3.758928179740905762e-02 -5.740496888756752014e-02 1.545138508081436157e-01 -1.646775156259536743e-01 1.379102617502212524e-01 1.396213650703430176e+00 1.139621436595916748e-01 -2.343699522316455841e-02 -1.479890793561935425e-01 -5.108691453933715820e-01 -1.717245578765869141e-02 4.726276174187660217e-02 1.891941726207733154e-01 2.361921966075897217e-02 1.238448638468980789e-02 1.079214662313461304e-01 -3.073365688323974609e-01 -2.585272118449211121e-02 -1.183629129081964493e-02 -1.011923253536224365e-01 1.018889714032411575e-02 1.192668825387954712e-02 -9.478697925806045532e-02 -8.138241618871688843e-02 1.543900556862354279e-02 -8.498543500900268555e-02 -6.815827637910842896e-02 -1.133922208100557327e-02 -3.121042251586914062e-01 -3.585495650768280029e-01 2.699930220842361450e-02 -4.340539500117301941e-02 4.784597456455230713e-02 -5.226236954331398010e-02 6.559918168932199478e-03 -3.548885136842727661e-02 -2.843702957034111023e-02 -1.318461447954177856e-01 -2.218201197683811188e-02 5.514661781489849091e-03 1.109066084027290344e-01 -2.003771960735321045e-01 1.796977594494819641e-02 -2.890518307685852051e-02 1.545120328664779663e-01 4.945615679025650024e-02 -1.758177531883120537e-03 -6.410377472639083862e-02 5.688447132706642151e-02 -2.422966808080673218e-02 1.136182546615600586e+00 -1.208163201808929443e-01 3.870083019137382507e-02 5.216161161661148071e-02 -3.768119215965270996e-02 -1.195682808756828308e-01 3.237328678369522095e-02 1.111860051751136780e-01 -4.946721717715263367e-02 2.419928610324859619e-01 -6.930800527334213257e-02 1.349096447229385376e-01 5.100594088435173035e-02 8.938997238874435425e-02 1.810716278851032257e-02 1.661578565835952759e-02 -3.614364191889762878e-03 1.205031946301460266e-01 1.823907531797885895e-02 -2.132919579744338989e-01 1.143494918942451477e-01 -2.070897072553634644e-01 -1.428287625312805176e-01 1.949785090982913971e-02 5.418658256530761719e-02 5.572970584034919739e-02 -1.642824560403823853e-01 3.364265561103820801e-01 1.892244368791580200e-01 -5.062739923596382141e-02 2.806488871574401855e-01 3.788579702377319336e-01 -6.309670861810445786e-03 2.620164677500724792e-02 -1.007891595363616943e-01 2.203696221113204956e-02 3.806496039032936096e-02 -8.808168768882751465e-02 1.344562023878097534e-01 5.138449072837829590e-01 6.941559910774230957e-02 -1.142322942614555359e-01 4.728507250547409058e-02 1.660373806953430176e+00 4.458318650722503662e-02 1.206484213471412659e-01 2.715723123401403427e-03 1.261156350374221802e-01 1.050573214888572693e-01 6.791204214096069336e-02 3.669397234916687012e-01 -4.195002317428588867e-01 2.205500304698944092e-01 -3.222680091857910156e-01 -7.287214975804090500e-03 8.386640250682830811e-02 2.320105433464050293e-01 1.022176221013069153e-01 9.165831841528415680e-03 -1.818215250968933105e-01 5.676003172993659973e-02 5.924087949097156525e-03 -6.231269240379333496e-02 1.288104429841041565e-02 -5.480806529521942139e-02 1.220743283629417419e-01 2.103490941226482391e-02 4.977712035179138184e-02 1.525422558188438416e-02 -3.209871426224708557e-02 3.110016882419586182e-01 -3.749396279454231262e-02 9.457058459520339966e-02 -3.240805491805076599e-02 -4.557366073131561279e-01 6.371621787548065186e-02 2.837347745895385742e+00 -3.921805620193481445e-01 8.982816338539123535e-02 -2.349893450736999512e-01 -7.056997716426849365e-02 -1.957922242581844330e-02 4.272831976413726807e-01 4.230134934186935425e-02 1.658641099929809570e-01 1.970066130161285400e-01 3.158726170659065247e-02 -1.024666591547429562e-03 -7.267236709594726562e-02 -1.031250581145286560e-01 7.172638177871704102e-02 1.881334185600280762e-01 -1.283514052629470825e-01 -6.009310111403465271e-02 -1.128428354859352112e-01 1.740795075893402100e-01 6.058839336037635803e-02 5.269347876310348511e-02 -2.303622812032699585e-01 1.028669551014900208e-01 3.260198533535003662e-01 6.955898716114461422e-04 -2.809071913361549377e-02 6.398256868124008179e-02 1.391262114048004150e-01 -6.798025220632553101e-02 -1.073869615793228149e-01 -4.204452633857727051e-01 9.334681183099746704e-02 -9.959814697504043579e-02 2.390092313289642334e-01 -2.904311418533325195e-01 1.363191008567810059e-01 -4.830129817128181458e-02 3.383786603808403015e-02 -3.201901167631149292e-02 9.871189296245574951e-02 1.829896308481693268e-02 -4.003224521875381470e-02 -5.676748976111412048e-02 9.131525456905364990e-02 1.213957905769348145e+00 -1.266063004732131958e-02 8.003539592027664185e-02 -1.204332709312438965e-01 -1.277615595608949661e-02 -1.019796133041381836e-01 -6.256158649921417236e-02 -9.833407402038574219e-02 5.078955367207527161e-02 -1.388024259358644485e-02 1.934505403041839600e-01 -3.693857416510581970e-02 -1.620972901582717896e-01 1.879526115953922272e-02 -4.572722688317298889e-02 -3.439981490373611450e-02 -3.296336233615875244e-01 3.348821192048490047e-04 1.924514323472976685e-01 -1.839197278022766113e-01 4.756718873977661133e-03 2.375036664307117462e-02 -2.593093872070312500e+00 -2.480420470237731934e-01 2.200785875320434570e-01 -1.855555474758148193e-01
-2.144162207841873169e-01 7.362297177314758301e-02 -5.861436575651168823e-02 -5.298858508467674255e-02 -3.068606555461883545e-01 -6.671352311968803406e-03 1.213353499770164490e-01 -4.132828488945960999e-02 -7.414030283689498901e-02 3.585667163133621216e-02 -1.714428514242172241e-01 8.885161578655242920e-02 2.378628700971603394e-01 -1.108273118734359741e-02 8.273861370980739594e-03 3.527597337961196899e-02 5.751762911677360535e-02 1.097055897116661072e-01 3.115015663206577301e-02 -1.163247898221015930e-01 8.318568021059036255e-02 -7.245138287544250488e-02 -8.396655321121215820e-03 -8.589337021112442017e-02 -5.241413414478302002e-02 7.716781459748744965e-03 -4.583882912993431091e-02 -2.684943005442619324e-02 1.586161367595195770e-02 9.183317422866821289e-01 -4.954221546649932861e-01 -7.702447474002838135e-02 -3.852005302906036377e-02 -1.012174338102340698e-01 6.837811470031738281e-01 8.821726590394973755e-02 8.922191336750984192e-03 5.111573636531829834e-02 -9.713328480720520020e-01 -1.556944996118545532e-01 4.665361344814300537e-02 4.044215381145477295e-02 2.743785381317138672e-01 -3.176792711019515991e-02 4.495823755860328674e-03 -1.194926910102367401e-02 -4.285073280334472656e-02 -1.289024651050567627e-01 -1.743467807769775391e+00 -7.954569160938262939e-02 -7.788517326116561890e-02 -4.794998764991760254e-01 -6.689906120300292969e-02 -5.251242965459823608e-02 -2.757965028285980225e-01 -1.186087429523468018e-01 1.558115333318710327e-01 1.601717993617057800e-02 2.227474153041839600e-01 6.815825402736663818e-02 -3.817129880189895630e-02 1.274196803569793701e-01 -1.477830410003662109e-01 5.168776586651802063e-02 1.497969269752502441e+00 7.557068020105361938e-02 -1.485287547111511230e-01 -1.528300195932388306e-01 -7.104765176773071289e-01 -7.473869621753692627e-02 4.175873473286628723e-02 7.503058016300201416e-02 9.163729101419448853e-02 -5.749773606657981873e-02 1.610526144504547119e-01 -2.196737676858901978e-01 -1.254962757229804993e-02 -4.813127592206001282e-02 -8.126833289861679077e-02 6.994552444666624069e-03 -7.754924707114696503e-03 -5.240366235375404358e-02 1.454582214355468750e-01 -2.051704190671443939e-02 2.118533104658126831e-02 1.181922778487205505e-01 -4.276519268751144409e-02 -3.172795474529266357e-01 -2.742306292057037354e-01 -6.577389314770698547e-03 -5.218968167901039124e-02 1.371390419080853462e-03 1.905424706637859344e-02 -9.744917601346969604e-02 -9.747873246669769287e-02 -3.948837891221046448e-02 -1.096180975437164307e-01 -4.267883300781250000e-02 -1.281962543725967407e-02 5.011567845940589905e-02 -1.647376269102096558e-01 -3.630628436803817749e-02 2.317507192492485046e-02 1.153075695037841797e-01 5.490196123719215393e-02 -1.859087869524955750e-02 -1.959963236004114151e-03 7.057605683803558350e-02 -2.601796016097068787e-02 -3.858119547367095947e-01 -2.075995802879333496e-01 -1.737969070672988892e-01 3.066279925405979156e-02 1.336663365364074707e-01 -1.834207624197006226e-01 -1.435941201634705067e-03 7.869049906730651855e-02 -8.695222437381744385e-02 2.750715613365173340e-01 -5.204616114497184753e-02 1.857690066099166870e-01 7.451490312814712524e-02 9.726650267839431763e-02 1.575515978038311005e-02 -9.438514709472656250e-02 7.488912343978881836e-02 2.331552803516387939e-01 -6.596199423074722290e-02 -5.516721010208129883e-01 1.267521679401397705e-01 -2.496172338724136353e-01 9.122628718614578247e-03 -3.869157284498214722e-02 6.107227504253387451e-02 1.864152029156684875e-02 -2.835181914269924164e-02 6.143253445625305176e-01 8.993277549743652344e-01 -5.529987812042236328e-02 2.117908746004104614e-01 3.521938025951385498e-01 7.575397193431854248e-02 6.257699429988861084e-02 1.179379131644964218e-02 -6.609997153282165527e-02 -3.878294676542282104e-02 1.962476968765258789e-02 -3.121315094176679850e-04 4.362299740314483643e-01 -1.636986504308879375e-03 -2.892713248729705811e-01 1.384789198637008667e-01 2.017923831939697266e+00 1.317775547504425049e-01 4.813908636569976807e-01 6.653050333261489868e-02 4.411083459854125977e-02 7.631496340036392212e-02 1.018924042582511902e-01 6.106510162353515625e-01 -5.807165503501892090e-01 3.757746219635009766e-01 -2.541952133178710938e-01 -5.705406889319419861e-02 4.943070560693740845e-02 2.421555370092391968e-01 1.480269730091094971e-01 1.055573765188455582e-02 1.176736354827880859e-01 4.775504022836685181e-02 -5.661313980817794800e-02 -1.120971795171499252e-02 1.309503614902496338e-02 5.797351524233818054e-02 1.248328313231468201e-01 -1.216718778014183044e-01 -8.405074477195739746e-02 -2.786224521696567535e-02 -8.075795136392116547e-03 3.611038625240325928e-01 -2.545741759240627289e-02 1.598443686962127686e-01 1.189093943685293198e-02 -3.610316514968872070e-01 1.765590161085128784e-02 2.546998739242553711e+00 -3.919845819473266602e-01 1.223354116082191467e-01 -2.258628606796264648e-01 3.265459835529327393e-02 1.821078360080718994e-02 5.728022456169128418e-01 5.856901034712791443e-02 1.845129877328872681e-01 3.350830376148223877e-01 1.430656481534242630e-02 -2.855551429092884064e-02 -5.848299339413642883e-02 -8.490443974733352661e-02 1.186691224575042725e-01 1.399438828229904175e-01 -3.616219013929367065e-02 -4.394497722387313843e-02 -1.013143137097358704e-01 1.084092408418655396e-01 1.050458922982215881e-01 4.398201592266559601e-03 4.242749214172363281e-01 -8.279639482498168945e-02 2.407806813716888428e-01 -2.626681514084339142e-02 -6.288546323776245117e-02 -1.197387352585792542e-01 1.885805726051330566e-01 -5.049467459321022034e-02 -1.510016322135925293e-01 3.514308929443359375e-01 6.929865479469299316e-02 -1.353411525487899780e-01 1.754781752824783325e-01 -3.030507266521453857e-01 1.758083999156951904e-01 6.457975506782531738e-02 -2.161105396226048470e-03 1.200015377253293991e-02 1.473465710878372192e-01 -4.916523396968841553e-02 4.530512541532516479e-02 -1.311183273792266846e-01 -9.496938582742586732e-05 -1.332954645156860352e+00 -2.456002496182918549e-02 9.691929817199707031e-02 -3.604932725429534912e-01 4.717727191746234894e-03 -8.497275412082672119e-02 -5.870326980948448181e-02 -4.239074140787124634e-02 6.146572530269622803e-02 -6.283438415266573429e-05 2.786644101142883301e-01 -4.977450147271156311e-02 -1.037665084004402161e-01 -1.559318304061889648e-01 -6.658052653074264526e-02 2.004464855417609215e-03 -3.431618809700012207e-01 3.558585047721862793e-02 2.423287630081176758e-01 -1.324109584093093872e-01 3.348058760166168213e-01 4.188159480690956116e-02 4.962164163589477539e-01 -2.459685206413269043e-01 -4.143714904785156250e-02 -1.419380754232406616e-01
-2.488910406827926636e-01 -1.247335597872734070e-01 3.658750653266906738e-02 -2.003694698214530945e-02 -1.957713663578033447e-01 4.535431414842605591e-02 1.059980019927024841e-01 -6.997502595186233521e-02 -1.680410583503544331e-03 4.111723229289054871e-02 -7.169461995363235474e-02 -1.326294690370559692e-01 -3.157751858234405518e-01 -5.526211485266685486e-02 -9.513172507286071777e-02 1.030450686812400818e-01 -8.806407451629638672e-03 1.567131131887435913e-01 1.173036396503448486e-01 -1.077129393815994263e-01 -5.660877376794815063e-02 5.787495523691177368e-02 -4.064381588250398636e-03 -1.438095569610595703e-01 9.883393533527851105e-03 -4.556854441761970520e-02 2.062921784818172455e-02 -6.961861252784729004e-02 -1.551112234592437744e-01 -5.649354308843612671e-03 -4.888259172439575195e-01 -1.080317050218582153e-02 -9.836981445550918579e-02 2.767938673496246338e-01 -4.089111685752868652e-01 1.279282718896865845e-01 1.052616834640502930e-01 5.500884726643562317e-02 3.571351468563079834e-01 -4.162723571062088013e-02 -8.407942950725555420e-02 1.833073794841766357e-02 -6.551688164472579956e-02 -2.849618531763553619e-02 2.549581229686737061e-02 -1.180020533502101898e-02 3.294433653354644775e-02 -6.814731657505035400e-02 -3.285463899374008179e-02 -2.786369808018207550e-02 -7.165661454200744629e-02 -6.329278349876403809e-01 -4.706330969929695129e-02 -6.908920407295227051e-02 2.938269264996051788e-02 -1.178246587514877319e-01 1.845162063837051392e-01 3.356491401791572571e-02 -1.153785362839698792e-02 -6.607487797737121582e-02 -7.513287663459777832e-02 1.407739967107772827e-01 -2.942322194576263428e-02 6.806407868862152100e-02 -7.910481691360473633e-01 7.896616309881210327e-02 -3.316725492477416992e-01 -1.095089465379714966e-01 2.071186304092407227e+00 -1.362279802560806274e-01 9.160196408629417419e-03 -4.392778500914573669e-02 3.196010589599609375e-01 9.344229847192764282e-02 7.032897323369979858e-02 -2.500425577163696289e-01 -4.382312297821044922e-03 -5.868473276495933533e-02 -1.562052518129348755e-01 9.438616782426834106e-02 2.773904986679553986e-02 -1.581464111804962158e-01 2.550262212753295898e-01 3.529686853289604187e-02 -6.340504437685012817e-02 -7.965739816427230835e-02 3.175036609172821045e-02 -3.659611642360687256e-01 -3.173958361148834229e-01 1.968776108697056770e-03 1.054039783775806427e-02 4.004819318652153015e-02 -1.584383659064769745e-02 -4.518075380474328995e-03 -5.626749619841575623e-02 -2.821685001254081726e-02 -9.411074966192245483e-02 9.326235204935073853e-02 1.494112238287925720e-02 1.305052638053894043e-01 -1.987741887569427490e-01 6.247703358530998230e-02 6.578206270933151245e-02 1.459408998489379883e-01 9.467268735170364380e-02 -8.554735034704208374e-02 -4.978613927960395813e-02 7.182898931205272675e-03 -4.869135096669197083e-02 -4.058797061443328857e-01 -1.720971614122390747e-01 -1.051339786499738693e-03 9.924476034939289093e-03 -1.849326789379119873e-01 -1.132122799754142761e-01 6.987111177295446396e-03 -2.024577409029006958e-01 -7.440412789583206177e-02 2.570221424102783203e-01 -3.572583198547363281e-02 6.847724318504333496e-02 8.065113425254821777e-02 -1.096705794334411621e-01 7.142817601561546326e-03 -2.081832475960254669e-02 -1.367566883563995361e-01 1.619878038763999939e-02 1.660532131791114807e-02 5.911216884851455688e-02 -2.755550481379032135e-02 -1.693069636821746826e-01 -2.689196914434432983e-02 9.844459593296051025e-03 3.081117942929267883e-02 -1.680702269077301025e-01 -1.540898978710174561e-01 -3.107263147830963135e-01 -2.555345892906188965e-01 -8.807986229658126831e-02 -1.462149024009704590e+00 -7.717191576957702637e-01 -1.112320739775896072e-02 7.638421375304460526e-03 1.398324966430664062e-01 -1.027556229382753372e-02 3.934679180383682251e-02 -5.025259032845497131e-02 2.719051539897918701e-01 5.337067246437072754e-01 1.620894074440002441e+00 1.956081539392471313e-01 -1.380160599946975708e-01 -1.705548524856567383e+00 -4.609645530581474304e-02 -1.120191588997840881e-01 -2.891747280955314636e-02 1.549208611249923706e-01 6.960607767105102539e-01 7.074061781167984009e-02 -2.907326221466064453e-01 4.114638268947601318e-01 -6.630898714065551758e-01 -2.936020493507385254e-01 2.230613306164741516e-02 1.271916180849075317e-01 2.246913462877273560e-01 1.185691207647323608e-01 -5.806456506252288818e-02 -5.093580856919288635e-02 1.560795679688453674e-02 -3.276901319622993469e-02 -7.755100727081298828e-02 8.618979156017303467e-02 7.174904644489288330e-02 8.109349757432937622e-02 -1.290967017412185669e-01 1.822586357593536377e-01 7.819122076034545898e-02 -7.299390435218811035e-02 1.639805138111114502e-01 -8.145354688167572021e-02 7.395817898213863373e-03 -1.133321970701217651e-02 5.595290064811706543e-01 5.157452076673507690e-02 2.815996646881103516e+00 -4.153701961040496826e-01 1.160302683711051941e-01 -1.314038932323455811e-01 -6.115550175309181213e-02 4.579663649201393127e-02 -4.092918038368225098e-01 5.927811935544013977e-02 8.485780656337738037e-02 -3.864209726452827454e-02 3.377665206789970398e-02 -7.383418735116720200e-03 -2.633683383464813232e-02 -1.102203354239463806e-01 1.115267202258110046e-01 2.101166248321533203e-01 -5.971705541014671326e-02 2.789790183305740356e-02 -7.216814905405044556e-02 -6.136194244027137756e-02 3.637871891260147095e-02 6.953739374876022339e-02 -2.878092527389526367e-01 2.241409718990325928e-01 3.672645092010498047e-01 8.927439153194427490e-02 -1.387643860653042793e-03 2.022621408104896545e-02 7.773584127426147461e-02 -2.460622973740100861e-02 7.892782986164093018e-02 -1.854139268398284912e-01 7.893367111682891846e-02 -5.871511250734329224e-02 -2.130521088838577271e-01 1.633898019790649414e-01 1.445903629064559937e-01 6.770404428243637085e-02 4.378632083535194397e-02 -3.791101276874542236e-02 1.880018264055252075e-01 4.488003998994827271e-02 -9.174616634845733643e-02 -6.842469796538352966e-03 9.285230934619903564e-02 -5.976520180702209473e-01 -2.486164867877960205e-02 8.838584274053573608e-02 2.761679887771606445e-01 -3.393357992172241211e-02 -4.602416604757308960e-02 -1.442055106163024902e-01 -1.247886288911104202e-02 1.344614624977111816e-01 3.321464359760284424e-02 5.374453216791152954e-02 -3.833209723234176636e-02 -7.537391781806945801e-02 -4.608564451336860657e-02 -1.423373371362686157e-01 -9.698549285531044006e-03 -5.140258744359016418e-02 3.648974001407623291e-02 1.502002775669097900e-01 -1.074774935841560364e-01 -8.422641754150390625e-01 2.497873827815055847e-02 6.260008085519075394e-04 -2.679536342620849609e-01 -1.747477799654006958e-01 -6.392264962196350098e-01
-1.633773446083068848e-01 -2.333975397050380707e-02 -1.002735197544097900e-01 -2.245344780385494232e-02 -1.900781393051147461e-01 3.135959059000015259e-02 1.700395196676254272e-01 -1.461221370846033096e-02 2.795173786580562592e-02 7.264081388711929321e-02 -1.378127932548522949e-01 -1.016242429614067078e-01 1.865795016288757324e+00 -4.801947623491287231e-03 9.894149377942085266e-03 9.756563603878021240e-02 3.263697773218154907e-02 1.142958551645278931e-01 2.107322514057159424e-01 -6.467119604349136353e-02 -1.186228692531585693e-01 1.458245422691106796e-02 1.463949959725141525e-02 -6.387411803007125854e-02 5.460407584905624390e-03 4.006162285804748535e-02 -5.887755751609802246e-02 -5.102363228797912598e-02 -1.464620083570480347e-01 -4.096374511718750000e-01 -4.664466977119445801e-01 -1.176772546023130417e-02 -6.854041665792465210e-02 -2.129718363285064697e-01 -3.259953111410140991e-02 1.027742847800254822e-01 5.495948716998100281e-02 1.124847829341888428e-01 4.870785772800445557e-01 -5.769285932183265686e-02 -3.583989292383193970e-02 5.290227010846138000e-02 1.307536810636520386e-01 -6.831241399049758911e-02 4.079258441925048828e-02 1.141599863767623901e-01 9.558013640344142914e-03 -1.476050019264221191e-01 -4.146776720881462097e-02 -8.571914583444595337e-02 -1.150945425033569336e-01 -5.289902091026306152e-01 1.265588030219078064e-02 1.859698817133903503e-02 -1.780718564987182617e-01 -7.920152693986892700e-02 2.385153472423553467e-01 -5.829023942351341248e-02 -6.500872969627380371e-02 -3.986444324254989624e-03 -5.347536131739616394e-02 1.123550534248352051e-01 -1.409922987222671509e-01 1.530373692512512207e-01 -1.088112831115722656e+00 4.742854461073875427e-02 -3.484409749507904053e-01 -1.554481685161590576e-01 -4.918645322322845459e-01 -9.036305546760559082e-02 7.331515848636627197e-02 -8.500406146049499512e-02 2.838383615016937256e-01 6.922486424446105957e-02 1.273677647113800049e-01 -2.129280418157577515e-01 -1.626471243798732758e-02 -5.736691504716873169e-02 -7.069958746433258057e-02 1.232483889907598495e-02 -3.800333291292190552e-02 -1.573125123977661133e-01 3.001348078250885010e-01 1.004613786935806274e-01 -9.903787076473236084e-02 9.076610952615737915e-02 1.514267176389694214e-02 -3.431513607501983643e-01 -3.763732314109802246e-01 -5.544367805123329163e-02 -3.063729405403137207e-02 2.434314228594303131e-02 -8.598835207521915436e-03 4.204200953245162964e-02 -6.220320984721183777e-02 -1.749817281961441040e-02 -8.923400938510894775e-02 3.214815631508827209e-02 -5.588967818766832352e-03 1.284260749816894531e-01 -1.698028296232223511e-01 8.735651150345802307e-03 2.190994843840599060e-02 1.307255327701568604e-01 -3.505248576402664185e-02 -1.021565794944763184e-01 -2.534371055662631989e-02 -1.105631813406944275e-01 -9.216925501823425293e-02 1.010285258293151855e+00 -2.211822867393493652e-01 -1.889025121927261353e-01 -2.695054002106189728e-02 3.174857050180435181e-02 -8.633601665496826172e-02 -6.937097758054733276e-02 -1.388734430074691772e-01 -6.928119808435440063e-02 3.507751524448394775e-01 -1.042601391673088074e-01 2.261325949802994728e-03 4.059331864118576050e-02 -5.243906378746032715e-02 1.012934446334838867e-01 1.903283782303333282e-02 -2.196598649024963379e-01 9.724753350019454956e-02 3.019778989255428314e-02 3.109464189037680626e-03 6.865628063678741455e-02 -2.549027800559997559e-01 -6.703569740056991577e-02 -1.996338367462158203e-03 8.985561132431030273e-02 -9.869989752769470215e-02 -2.314480096101760864e-01 -1.514088921248912811e-02 -3.108749687671661377e-01 -1.964065618813037872e-02 5.364052653312683105e-01 -8.874796628952026367e-01 2.494107000529766083e-02 -2.921831794083118439e-02 -5.516495089977979660e-03 -1.613471284508705139e-02 -6.398022174835205078e-03 -2.264109626412391663e-02 1.390274614095687866e-01 4.701799452304840088e-01 -2.439430803060531616e-01 6.653604656457901001e-02 1.143174394965171814e-01 -1.396090269088745117e+00 -1.511124819517135620e-01 -1.999506056308746338e-01 2.569633536040782928e-02 1.394683718681335449e-01 1.326543837785720825e-01 -1.684958813712000847e-03 6.168553233146667480e-02 2.627560123801231384e-02 -4.143863320350646973e-01 -3.678670227527618408e-01 -6.587821990251541138e-02 4.680581390857696533e-02 1.620492786169052124e-01 8.208333700895309448e-02 -5.913859978318214417e-02 -2.725065648555755615e-01 6.737661361694335938e-02 -8.407195657491683960e-02 -3.874944150447845459e-02 1.605552621185779572e-02 4.059059917926788330e-02 1.044359803199768066e-01 -1.039939522743225098e-01 -1.651559770107269287e-01 8.377195894718170166e-02 -4.662114381790161133e-02 -2.621411323547363281e+00 -1.190805956721305847e-01 -1.227087378501892090e-01 -3.959430381655693054e-02 6.499082446098327637e-01 1.172297149896621704e-01 2.545271635055541992e+00 -3.975374102592468262e-01 1.242289319634437561e-01 -2.461501359939575195e-01 1.105685718357563019e-02 1.029578000307083130e-01 -5.620251893997192383e-01 3.716143593192100525e-02 1.776328980922698975e-01 -7.879181951284408569e-02 3.754201903939247131e-02 -8.788347244262695312e-02 -3.074754215776920319e-02 -1.077437996864318848e-01 1.038063764572143555e-01 3.424401879310607910e-01 -7.732108235359191895e-02 1.785109937191009521e-02 -1.139338389039039612e-01 -1.174806896597146988e-02 -3.462212160229682922e-03 1.178359612822532654e-02 -9.884668886661529541e-02 3.125359416007995605e-01 2.376046627759933472e-01 -1.453064978122711182e-01 -1.222645957022905350e-02 1.494604162871837616e-02 1.218022778630256653e-02 -2.409913390874862671e-02 5.222620442509651184e-02 -4.667836427688598633e-01 4.936482012271881104e-02 -2.533762529492378235e-02 -4.187921807169914246e-02 4.453096166253089905e-02 2.184061855077743530e-01 7.489577680826187134e-02 8.662684261798858643e-02 -2.536281570792198181e-02 2.002264410257339478e-01 -5.493457987904548645e-02 -1.278676390647888184e-01 -5.492115858942270279e-03 9.683347493410110474e-02 9.649738073348999023e-01 -2.884069224819540977e-03 1.122480854392051697e-01 2.526253759860992432e-01 -2.969321794807910919e-02 -6.569136679172515869e-02 -1.417586803436279297e-01 -5.308001860976219177e-02 9.112126380205154419e-02 -1.449834275990724564e-02 4.450446367263793945e-02 5.775116384029388428e-03 -1.018729954957962036e-01 -2.542663365602493286e-02 -1.204006895422935486e-01 -1.593754626810550690e-02 -7.490891218185424805e-02 3.925856575369834900e-02 1.998911798000335693e-01 -1.309275627136230469e-01 -7.890697717666625977e-01 2.441697940230369568e-02 7.614821940660476685e-02 -2.501967549324035645e-01 7.140385452657938004e-03 -3.101366460323333740e-01
-1.066060811281204224e-01 6.835267692804336548e-02 2.155335545539855957e-01 -1.694687828421592712e-02 -2.361437827348709106e-01 9.444051980972290039e-02 2.099587917327880859e-01 2.748009935021400452e-02 -6.489326059818267822e-02 -8.070525713264942169e-03 -1.663358360528945923e-01 -2.056721784174442291e-02 -4.552161991596221924e-01 -4.118176922202110291e-02 -7.572603225708007812e-02 1.219507306814193726e-01 -2.189850434660911560e-02 3.898211568593978882e-02 1.335712522268295288e-01 -4.121287912130355835e-02 -1.066405884921550751e-02 -1.883832924067974091e-02 -5.705840140581130981e-02 -1.480090171098709106e-01 -1.426465529948472977e-02 -4.686536267399787903e-02 4.405804444104433060e-03 -2.830684185028076172e-02 -1.913695596158504486e-02 1.120940923690795898e+00 -4.726645052433013916e-01 1.069770753383636475e-01 -1.006080433726310730e-01 -1.702421009540557861e-01 -4.141453802585601807e-01 1.313490122556686401e-01 5.575832724571228027e-02 -4.274611175060272217e-02 -5.787327289581298828e-01 -1.500356495380401611e-01 -2.272784709930419922e-02 3.091222606599330902e-02 -7.937570661306381226e-02 -1.090544089674949646e-01 -3.456022590398788452e-02 -1.926405727863311768e-02 -2.625240944325923920e-02 -1.260322183370590210e-01 7.818391919136047363e-02 -4.827045649290084839e-02 -5.531344562768936157e-02 -5.720099806785583496e-01 -4.573545604944229126e-02 -7.110597798600792885e-04 -2.433460354804992676e-01 -1.762920469045639038e-01 2.020759582519531250e-01 2.562617138028144836e-02 4.478890821337699890e-02 -6.725841015577316284e-02 4.826803877949714661e-02 1.109812632203102112e-01 -2.384106665849685669e-01 3.900596499443054199e-02 1.368474602699279785e+00 1.047648340463638306e-01 -1.538635492324829102e-01 -9.464889764785766602e-02 -3.118177652359008789e-01 -9.984050691127777100e-02 2.573463320732116699e-02 -1.655860096216201782e-01 1.693867594003677368e-01 4.646114632487297058e-02 1.169925108551979065e-01 -2.872042059898376465e-01 -1.371433399617671967e-02 -4.675226658582687378e-02 -1.865451186895370483e-01 -2.795834792777895927e-03 -4.705849662423133850e-02 -1.230862960219383240e-01 -3.899481892585754395e-01 1.780319027602672577e-02 1.155044883489608765e-03 9.128508716821670532e-02 1.330686174333095551e-02 -3.838602602481842041e-01 -3.112817406654357910e-01 -8.241430856287479401e-03 7.526755798608064651e-03 5.694484338164329529e-02 2.249711193144321442e-02 -5.764829739928245544e-02 -8.567102253437042236e-02 -6.570022553205490112e-02 -6.337187439203262329e-02 -1.028096303343772888e-02 -1.423696056008338928e-02 7.836510986089706421e-02 -1.962417662143707275e-01 -4.810551926493644714e-02 3.524110885336995125e-03 1.266890615224838257e-01 7.955674827098846436e-02 7.771554589271545410e-02 2.944855764508247375e-02 3.935274481773376465e-02 2.266125194728374481e-02 1.104105830192565918e+00 -2.062770128250122070e-01 5.656709671020507812e-01 -9.446213021874427795e-03 2.177441418170928955e-01 -1.891050636768341064e-01 4.259305819869041443e-02 8.542925864458084106e-02 -1.421577036380767822e-01 2.702703475952148438e-01 -1.357610672712326050e-01 9.400334209203720093e-02 4.755859076976776123e-02 -4.599209502339363098e-02 -2.891836315393447876e-02 -2.333683520555496216e-02 2.285129949450492859e-02 7.441299408674240112e-02 -1.207853257656097412e-01 -2.908476889133453369e-01 9.530081599950790405e-02 -2.019485831260681152e-01 -1.272882074117660522e-01 -1.120328251272439957e-02 3.725344315171241760e-02 -3.303443640470504761e-02 -3.175454586744308472e-02 -9.390002489089965820e-02 -4.884493947029113770e-01 -8.167906105518341064e-02 -3.722275197505950928e-01 4.132228195667266846e-01 -6.773639470338821411e-03 8.695490658283233643e-02 6.170425564050674438e-02 -2.972828596830368042e-02 -2.553643891587853432e-03 -5.024019256234169006e-02 2.012213915586471558e-01 4.203290343284606934e-01 -6.987371295690536499e-02 -9.938408434391021729e-02 -7.398369722068309784e-03 -1.607025265693664551e+00 6.749243289232254028e-02 2.546651363372802734e-01 3.221398591995239258e-02 9.168236702680587769e-02 -4.840692877769470215e-01 -1.152326688170433044e-01 5.537994503974914551e-01 -5.934858322143554688e-01 -6.629759669303894043e-01 -3.268475532531738281e-01 3.013752773404121399e-02 1.047623530030250549e-01 2.095871418714523315e-01 1.063466221094131470e-01 3.211131086573004723e-03 -3.336926922202110291e-02 7.244178559631109238e-03 -2.277891151607036591e-02 -1.130915135145187378e-01 3.510139882564544678e-02 1.565358415246009827e-02 1.956519931554794312e-01 -1.151793971657752991e-01 4.263965189456939697e-01 4.579447582364082336e-02 -5.762043222784996033e-02 -2.758427619934082031e+00 -4.514516331255435944e-03 1.183186396956443787e-01 -3.775754570960998535e-02 -4.601539373397827148e-01 4.072806984186172485e-02 2.582251548767089844e+00 -4.471172690391540527e-01 1.008909121155738831e-01 -1.973024904727935791e-01 -1.974416896700859070e-02 8.157022297382354736e-02 2.080372720956802368e-01 -2.787915244698524475e-02 1.586480289697647095e-01 -2.084930986166000366e-01 9.988240897655487061e-03 1.269424557685852051e-01 2.634210512042045593e-02 -4.380553588271141052e-02 9.835007041692733765e-02 2.761742770671844482e-01 -1.035748794674873352e-01 -6.327292323112487793e-02 -7.181018590927124023e-02 6.168511137366294861e-02 5.268534272909164429e-02 3.071229346096515656e-02 3.681960403919219971e-01 -4.948188550770282745e-03 3.286679089069366455e-01 3.016876429319381714e-02 -1.362529247999191284e-01 1.462352741509675980e-02 2.050750255584716797e-01 -1.631940342485904694e-02 -3.362319618463516235e-02 1.345805227756500244e-01 4.081460088491439819e-02 -7.905286550521850586e-02 1.465380489826202393e-01 -3.187932670116424561e-01 1.840831637382507324e-01 -6.518928799778223038e-03 -6.026033684611320496e-02 2.304230071604251862e-02 2.948173284530639648e-01 -3.387507051229476929e-02 -1.154485940933227539e-01 3.307724744081497192e-02 5.238070338964462280e-02 -6.811318397521972656e-01 4.126934707164764404e-02 4.622482880949974060e-02 -9.738838672637939453e-02 8.919629268348217010e-03 -8.264944702386856079e-02 -1.653736233711242676e-01 -1.179762408137321472e-01 1.196879893541336060e-01 6.491839885711669922e-02 2.594337165355682373e-01 -7.277220487594604492e-02 -1.102147847414016724e-01 -1.841095983982086182e-01 -8.222629129886627197e-02 -1.250564213842153549e-02 -1.436366289854049683e-01 1.997605338692665100e-02 2.166393399238586426e-01 -1.587140262126922607e-01 3.591477870941162109e-01 4.043611884117126465e-02 3.036073446273803711e-01 1.032642126083374023e+00 -9.328462928533554077e-02 -2.116356045007705688e-01
-2.170574665069580078e-01 -1.483808457851409912e-01 6.232449039816856384e-02 -5.591827258467674255e-02 -1.370289176702499390e-01 6.008392944931983948e-02 1.674128174781799316e-01 -1.396751254796981812e-01 -1.501170825213193893e-02 1.525402814149856567e-02 3.913975507020950317e-02 2.035782672464847565e-02 -4.392618536949157715e-01 6.488545984029769897e-02 -1.415770351886749268e-01 8.327632397413253784e-02 8.199044503271579742e-03 2.721968293190002441e-01 1.484138667583465576e-01 -3.430940210819244385e-02 -4.836667701601982117e-02 -3.455715999007225037e-02 -2.088859491050243378e-02 -1.083976402878761292e-01 -1.906893774867057800e-02 -1.287743449211120605e-02 8.355357684195041656e-03 -8.158884942531585693e-02 -1.906252503395080566e-01 -1.587418764829635620e-01 -4.676960408687591553e-01 5.892845243215560913e-02 -5.728917568922042847e-02 4.016708433628082275e-01 2.836689352989196777e-01 1.169702857732772827e-01 8.501587063074111938e-02 5.200164765119552612e-02 -1.578220486640930176e+00 -6.986190378665924072e-02 -1.037312671542167664e-01 -3.263735398650169373e-02 9.677352011203765869e-02 -7.825432717800140381e-02 1.461952328681945801e-01 1.790654957294464111e-01 -5.997513234615325928e-02 -1.848366558551788330e-01 1.762193143367767334e-01 -1.148539930582046509e-01 -4.606658220291137695e-02 -5.998752713203430176e-01 -9.092170745134353638e-02 -5.925580486655235291e-02 -3.674537688493728638e-02 -1.113603264093399048e-01 2.107152640819549561e-01 -6.073141098022460938e-02 -3.442969918251037598e-02 1.626110821962356567e-01 -2.459106966853141785e-02 1.564135104417800903e-01 -9.415879845619201660e-02 7.347933202981948853e-02 -7.611962556838989258e-01 2.760697528719902039e-02 -3.504820466041564941e-01 -1.869231760501861572e-01 -1.384144544601440430e+00 -6.016221642494201660e-02 8.750047534704208374e-02 4.260696843266487122e-02 2.152932435274124146e-01 4.791925102472305298e-02 7.315108180046081543e-02 -1.321235746145248413e-01 9.469555690884590149e-03 -6.765889376401901245e-02 -2.535215578973293304e-02 1.102325692772865295e-01 2.886179275810718536e-02 -1.370267570018768311e-01 9.064360707998275757e-02 -4.136219248175621033e-02 3.004872472956776619e-03 -1.618401408195495605e-01 3.479781001806259155e-02 -3.835495710372924805e-01 -3.075215816497802734e-01 1.173316221684217453e-02 6.113644689321517944e-02 1.625618152320384979e-02 8.151950687170028687e-02 8.724021725356578827e-03 -7.878562062978744507e-02 -3.199546411633491516e-02 -1.023603454232215881e-01 6.725251208990812302e-03 -7.230651378631591797e-02 9.050238877534866333e-02 -1.826866567134857178e-01 5.005693435668945312e-02 3.223197907209396362e-02 1.557526588439941406e-01 -2.029167674481868744e-02 -2.102483063936233521e-01 -6.931701302528381348e-02 -5.171909462660551071e-03 -1.298148781061172485e-01 -1.027249097824096680e+00 -1.000891998410224915e-01 -6.165944412350654602e-02 9.340098127722740173e-03 -4.965967312455177307e-02 -1.670596152544021606e-01 1.765270903706550598e-02 -1.087666004896163940e-01 -3.435242548584938049e-02 3.921658396720886230e-01 -4.608471319079399109e-02 7.479550689458847046e-02 7.736574858427047729e-02 -2.116643078625202179e-02 9.283598512411117554e-02 -2.650171332061290741e-02 -1.350701898336410522e-01 7.343031466007232666e-02 2.476393943652510643e-03 -1.526388823986053467e-01 3.836711496114730835e-02 -2.641896903514862061e-01 -4.560916125774383545e-02 -1.182324066758155823e-02 -4.031740501523017883e-02 -1.771087944507598877e-01 -3.883925378322601318e-01 1.565898954868316650e-01 2.268815636634826660e-01 -6.969062983989715576e-02 -2.624121189117431641e+00 -7.491823434829711914e-01 3.272151574492454529e-02 -2.672952786087989807e-02 2.799312025308609009e-02 5.010041221976280212e-02 5.110337212681770325e-02 2.693517133593559265e-03 1.196917369961738586e-01 5.117751359939575195e-01 4.518888518214225769e-02 1.214769333600997925e-01 -7.452334165573120117e-01 1.216340661048889160e+00 -7.056766003370285034e-02 -3.360706269741058350e-01 7.683138549327850342e-02 8.855650573968887329e-02 -1.381140589714050293e+00 1.117894500494003296e-01 -3.021622300148010254e-01 4.297073185443878174e-01 4.711357951164245605e-01 -2.279060035943984985e-01 -8.971899747848510742e-03 1.399584114551544189e-02 2.698590457439422607e-01 1.017247512936592102e-01 -4.384400695562362671e-02 3.489188849925994873e-01 2.406216040253639221e-02 -5.271045863628387451e-02 -9.381927549839019775e-02 1.072621047496795654e-01 1.176320910453796387e-01 -3.948423266410827637e-02 -6.487738341093063354e-02 -4.078152477741241455e-01 2.207176201045513153e-02 2.592589519917964935e-02 2.725546061992645264e-01 -8.153199404478073120e-02 9.224465489387512207e-02 1.245111413300037384e-02 6.584492325782775879e-01 6.587076932191848755e-02 3.014638662338256836e+00 -4.045272767543792725e-01 1.200703009963035583e-01 -2.468561679124832153e-01 -2.626623958349227905e-02 3.500117361545562744e-02 -4.566851854324340820e-01 -2.592109143733978271e-02 9.824049472808837891e-02 -1.396702527999877930e-01 7.724279910326004028e-02 2.905614301562309265e-02 -1.455724537372589111e-01 -2.088603824377059937e-01 1.410949975252151489e-01 2.798383235931396484e-01 -9.930730611085891724e-02 1.817731000483036041e-02 -9.068076312541961670e-02 -1.353055238723754883e-01 1.049106717109680176e-01 2.778350189328193665e-02 -2.936491072177886963e-01 2.746779918670654297e-01 4.356139898300170898e-01 1.520368605852127075e-01 3.614047542214393616e-02 4.788787662982940674e-02 3.306445851922035217e-02 -3.005556017160415649e-02 8.142034709453582764e-02 -1.451867073774337769e-01 1.231161504983901978e-01 -1.202921569347381592e-01 -2.579123079776763916e-01 1.601101458072662354e-01 1.337429434061050415e-01 9.671655297279357910e-02 5.355379730463027954e-02 -5.078299343585968018e-02 1.301936507225036621e-01 -3.303103148937225342e-03 9.200376458466053009e-03 -1.500129401683807373e-01 1.057841852307319641e-01 4.792691469192504883e-01 -6.735526770353317261e-02 4.215037450194358826e-02 2.140571326017379761e-01 -5.853309109807014465e-02 -1.542974114418029785e-01 -1.168254613876342773e-01 -6.423971801996231079e-02 6.794514507055282593e-02 -3.174933791160583496e-02 5.260390415787696838e-02 -4.926361143589019775e-02 -1.088714301586151123e-01 -5.755134671926498413e-02 -1.221097856760025024e-01 -1.889921911060810089e-02 -8.023814111948013306e-02 1.323735266923904419e-01 2.092398405075073242e-01 -1.451437622308731079e-01 -5.542647838592529297e-01 1.367741823196411133e-02 3.191684558987617493e-02 3.733696937561035156e-01 4.319328442215919495e-02 -8.394549787044525146e-02
-2.287912815809249878e-01 -1.075464412569999695e-01 7.407469302415847778e-02 -2.372772619128227234e-02 -3.134100735187530518e-01 7.284052670001983643e-02 2.922040820121765137e-01 1.868920214474201202e-02 7.833668030798435211e-03 1.297639757394790649e-01 -9.360083937644958496e-02 1.287826057523488998e-02 -2.040826715528964996e-02 1.534029841423034668e-02 -7.374504953622817993e-02 4.068456962704658508e-02 -5.834854021668434143e-02 7.842545956373214722e-02 1.513281464576721191e-01 -4.974060133099555969e-02 -1.662261411547660828e-02 -2.580069750547409058e-02 -3.302727267146110535e-02 -1.531909704208374023e-01 1.946049625985324383e-03 -8.398129791021347046e-02 8.901908993721008301e-02 -5.017990991473197937e-02 -4.427086934447288513e-02 -6.256420016288757324e-01 -3.690832853317260742e-01 3.771246969699859619e-02 -9.664555639028549194e-02 -2.483266592025756836e-01 -6.846643686294555664e-01 1.216186285018920898e-01 6.581366807222366333e-02 1.173111051321029663e-01 -9.021092653274536133e-01 -1.449985802173614502e-01 -1.047239527106285095e-01 -7.490724325180053711e-02 7.506016641855239868e-02 8.354339748620986938e-03 -4.098422452807426453e-02 -8.489473164081573486e-02 -9.124500304460525513e-02 -1.149833947420120239e-01 2.560442388057708740e-01 -1.348980367183685303e-01 -2.948362845927476883e-03 -5.989528894424438477e-01 -7.993599772453308105e-02 1.526118628680706024e-02 2.331381440162658691e-01 -1.300611495971679688e-01 1.803919523954391479e-01 8.346102200448513031e-03 4.824523255228996277e-02 -5.512576922774314880e-02 -5.313240457326173782e-03 1.743601262569427490e-01 -1.837295442819595337e-01 9.189457446336746216e-02 1.426177620887756348e+00 9.694040566682815552e-02 -2.408991754055023193e-01 -1.378386318683624268e-01 -1.114035487174987793e+00 5.440032854676246643e-02 4.002329334616661072e-02 -9.516712278127670288e-02 4.164574742317199707e-01 1.355766952037811279e-01 1.545798927545547485e-01 -2.520272433757781982e-01 -3.332309797406196594e-02 -5.367730930447578430e-02 -1.108267977833747864e-01 2.868215553462505341e-03 1.134656965732574463e-01 -1.634926646947860718e-01 -5.152797326445579529e-02 -1.498107332736253738e-03 -9.407404065132141113e-02 9.048647433519363403e-02 9.343343973159790039e-02 -2.920682728290557861e-01 -2.766845226287841797e-01 -7.592052221298217773e-02 -1.444585714489221573e-02 -2.448684535920619965e-03 8.369290828704833984e-02 -6.412032991647720337e-03 -7.341693341732025146e-02 2.714622952044010162e-02 -9.356855601072311401e-02 8.577119559049606323e-02 -3.495847806334495544e-02 1.156351193785667419e-01 -9.780504554510116577e-02 -5.572681874036788940e-02 -1.295784264802932739e-01 1.812784522771835327e-01 1.461327224969863892e-01 1.057201474905014038e-01 4.811635985970497131e-02 4.515040665864944458e-02 -4.669782146811485291e-02 -1.062844038009643555e+00 -9.906001389026641846e-02 -2.425193041563034058e-02 -1.630708388984203339e-02 1.317330729216337204e-02 -6.044775247573852539e-02 3.548505529761314392e-02 1.969986706972122192e-01 -1.483638677746057510e-02 2.174901664257049561e-01 -6.881812214851379395e-02 6.693732738494873047e-02 8.318739384412765503e-02 -4.638388752937316895e-02 9.054867923259735107e-02 4.199036955833435059e-02 -3.828135132789611816e-02 1.151566952466964722e-01 -6.966765969991683960e-02 -2.853060960769653320e-01 1.116751506924629211e-01 -2.864864170551300049e-01 -4.652024060487747192e-02 1.369714643806219101e-02 -2.351863542571663857e-03 -1.008629724383354187e-01 -1.552505940198898315e-01 -1.259518384933471680e+00 -7.018675208091735840e-01 -8.931612223386764526e-02 4.402361214160919189e-01 2.083286643028259277e-01 4.307724535465240479e-03 -1.110407989472150803e-02 1.165442839264869690e-01 3.426587581634521484e-02 -4.671764560043811798e-03 -6.900253891944885254e-02 9.302614629268646240e-02 4.151272475719451904e-01 -5.029475688934326172e-02 -2.541356906294822693e-02 3.286335170269012451e-01 -1.728836774826049805e+00 -1.397964954376220703e-01 2.238792926073074341e-01 3.856639191508293152e-02 -3.263789415359497070e-02 -4.748267233371734619e-01 9.134833700954914093e-03 1.251863837242126465e-01 -2.800155580043792725e-01 3.919223248958587646e-01 -2.754186689853668213e-01 -7.455207407474517822e-02 2.310374006628990173e-02 2.431254237890243530e-01 6.091195717453956604e-02 3.428908810019493103e-02 1.454496234655380249e-01 8.105096220970153809e-02 -6.525980681180953979e-02 -1.190349012613296509e-01 -6.360740959644317627e-02 4.117056354880332947e-02 1.571465432643890381e-01 -1.901518106460571289e-01 1.500037163496017456e-01 7.406967878341674805e-02 -4.523559287190437317e-02 5.338320136070251465e-01 -9.424167871475219727e-02 -1.416523009538650513e-01 2.004598081111907959e-02 -6.661712527275085449e-01 5.418822914361953735e-02 2.696850061416625977e+00 -4.736340939998626709e-01 1.310832947492599487e-01 -2.561972141265869141e-01 -1.612445563077926636e-01 1.745311729609966278e-02 4.660720825195312500e-01 -1.924038864672183990e-02 9.177781641483306885e-02 -1.894871890544891357e-01 2.155064791440963745e-02 1.394431889057159424e-01 -1.609935425221920013e-02 -1.219261959195137024e-01 -4.165858030319213867e-02 1.869274973869323730e-01 -8.439808338880538940e-02 3.007800690829753876e-02 -4.749782755970954895e-02 -1.015377193689346313e-01 1.304075773805379868e-02 5.415874067693948746e-03 -1.018191501498222351e-01 2.721992731094360352e-01 2.876167297363281250e-01 2.662632465362548828e-01 -1.632829196751117706e-03 2.131910622119903564e-02 9.273514151573181152e-02 -6.505069881677627563e-02 7.361202687025070190e-02 -9.326604008674621582e-01 4.645474255084991455e-02 -7.551887631416320801e-02 -2.733966708183288574e-01 1.701128929853439331e-01 2.046639025211334229e-01 4.275362193584442139e-02 -2.159074507653713226e-02 1.341598201543092728e-02 3.432580530643463135e-01 5.756659805774688721e-02 -1.485473569482564926e-02 -1.062728744000196457e-02 2.467624545097351074e-01 -9.516563266515731812e-02 -3.823455423116683960e-02 1.546224653720855713e-01 1.470264196395874023e-01 -4.145880416035652161e-02 -1.132201850414276123e-01 -1.289018690586090088e-01 -8.332876861095428467e-02 1.300990432500839233e-01 5.871668085455894470e-02 2.583194077014923096e-01 -5.528640747070312500e-02 -2.432771623134613037e-01 -1.512482315301895142e-01 -3.478495776653289795e-02 -5.512335523962974548e-02 -1.476975381374359131e-01 2.656439691781997681e-02 2.181352674961090088e-01 -2.700385749340057373e-01 4.968791604042053223e-01 7.763437926769256592e-03 6.050991415977478027e-01 -1.944683074951171875e+00 1.534832641482353210e-02 8.046833425760269165e-02
-2.304718494415283203e-01 -7.736787945032119751e-02 1.189458370208740234e-01 3.248102962970733643e-02 -2.100473940372467041e-01 5.941992625594139099e-02 1.102329641580581665e-01 -6.447742879390716553e-02 -1.172713097184896469e-02 5.941446870565414429e-03 -5.032164976000785828e-02 2.923182956874370575e-02 6.316065788269042969e-02 7.458654232323169708e-03 -3.912801668047904968e-02 9.385950118303298950e-02 -5.470398347824811935e-03 2.450924068689346313e-01 1.333461403846740723e-01 -1.816355735063552856e-01 -1.341647505760192871e-01 -5.490791052579879761e-02 5.819693952798843384e-02 -9.261251986026763916e-02 2.739129774272441864e-02 2.450960129499435425e-02 -7.328889332711696625e-03 -2.353399246931076050e-02 -3.179523050785064697e-01 -1.088583171367645264e-01 -4.265436232089996338e-01 2.055324465036392212e-01 -5.054226145148277283e-02 3.903904259204864502e-01 3.810965120792388916e-01 1.276723742485046387e-01 2.891339734196662903e-02 4.870486631989479065e-02 5.732017159461975098e-01 -8.726940304040908813e-02 -2.563955448567867279e-02 -3.250114992260932922e-02 5.621395632624626160e-02 -7.620538026094436646e-02 6.476304028183221817e-03 -7.117670029401779175e-03 -3.983448818325996399e-02 -2.105950266122817993e-01 1.012433599680662155e-02 -1.144156157970428467e-01 -1.227206215262413025e-01 -6.508939862251281738e-01 -6.923858821392059326e-02 -1.502231955528259277e-01 -1.621516644954681396e-01 -8.339887857437133789e-02 2.006216496229171753e-01 1.073691695928573608e-01 -4.194553196430206299e-02 -1.433257758617401123e-01 -1.120147109031677246e-01 1.327673047780990601e-01 3.032826073467731476e-02 1.363523751497268677e-01 -5.756325721740722656e-01 -3.181451186537742615e-02 -1.765324473381042480e-01 -8.222253620624542236e-02 1.967075347900390625e+00 -6.143435090780258179e-02 -8.008053526282310486e-03 1.611946970224380493e-01 2.003773748874664307e-01 -8.996209129691123962e-03 1.594028249382972717e-02 -3.033832311630249023e-01 9.343604557216167450e-03 -1.287249028682708740e-01 -2.735131792724132538e-02 -5.744374357163906097e-03 -2.981893345713615417e-02 -1.397017091512680054e-01 -7.144303321838378906e-01 8.443638682365417480e-03 4.789337515830993652e-02 -7.907625287771224976e-02 8.538105338811874390e-02 -3.643800318241119385e-01 -2.853923439979553223e-01 7.712095975875854492e-02 2.628184109926223755e-02 5.618855357170104980e-02 -1.756658218801021576e-02 -3.838057443499565125e-02 -3.328729048371315002e-02 -4.359225183725357056e-02 -8.676666766405105591e-02 5.470033735036849976e-02 2.847164170816540718e-03 2.822207473218441010e-02 -2.308129966259002686e-01 -1.620223559439182281e-02 1.916002631187438965e-01 1.708799898624420166e-01 -1.020756363868713379e-02 -1.488830000162124634e-01 -1.334214508533477783e-01 -9.089389443397521973e-02 2.308195456862449646e-02 -7.853577733039855957e-01 -1.538453400135040283e-01 9.359584748744964600e-02 -2.979351207613945007e-02 7.789858430624008179e-02 -1.493635177612304688e-01 -2.346741594374179840e-02 -1.375688612461090088e-01 -6.356178224086761475e-02 3.065766990184783936e-01 -6.872887909412384033e-02 4.539819806814193726e-02 7.732111215591430664e-02 1.461272835731506348e-01 2.498830901458859444e-03 -2.874443866312503815e-02 -1.901102960109710693e-01 4.799343645572662354e-02 5.253268778324127197e-02 -2.070981711149215698e-01 -4.127796739339828491e-02 -2.605080008506774902e-01 -9.139774367213249207e-03 -2.054284326732158661e-02 3.996661677956581116e-02 -6.755501776933670044e-02 -2.755700945854187012e-01 5.313525199890136719e-01 2.992805540561676025e-01 -2.672969596460461617e-03 -1.096463561058044434e+00 -5.628323554992675781e-01 -1.322492305189371109e-02 -2.368936315178871155e-02 6.261183321475982666e-02 -6.029873713850975037e-02 1.945158839225769043e-02 1.588688790798187256e-01 4.322880879044532776e-03 4.950493872165679932e-01 -5.900788903236389160e-01 -1.348901726305484772e-02 1.890888810157775879e-01 1.771560668945312500e+00 -1.073595602065324783e-02 -2.837955206632614136e-02 -2.562736719846725464e-02 1.494282633066177368e-01 8.168009519577026367e-01 1.892018765211105347e-01 -4.072461128234863281e-01 4.963850378990173340e-01 3.073209524154663086e-01 -3.184897005558013916e-01 -8.307921886444091797e-02 6.937503814697265625e-02 2.130379229784011841e-01 8.867535740137100220e-02 -4.164304584264755249e-02 2.565013170242309570e-01 1.043076142668724060e-01 -3.122321702539920807e-02 -7.020238041877746582e-02 2.839484252035617828e-02 2.521393299102783203e-01 1.268767267465591431e-01 -2.286954224109649658e-01 2.598305344581604004e-01 6.705146282911300659e-02 -9.694831073284149170e-02 8.502361923456192017e-02 -1.643503457307815552e-02 -6.955944746732711792e-02 -2.654085494577884674e-02 7.227551937103271484e-01 8.991318196058273315e-02 2.834720373153686523e+00 -3.471888899803161621e-01 1.755755841732025146e-01 -2.229604125022888184e-01 -4.590889066457748413e-02 2.663140185177326202e-02 -3.423855602741241455e-01 4.941475391387939453e-02 1.280915588140487671e-01 -1.052510067820549011e-01 9.591082483530044556e-02 5.567021295428276062e-02 -6.810642033815383911e-02 -8.110875636339187622e-02 1.535066515207290649e-01 2.299393117427825928e-01 -4.989874362945556641e-02 1.126908464357256889e-03 -7.224653661251068115e-02 -1.225527934730052948e-02 -1.986187323927879333e-02 -4.182421043515205383e-02 -3.653793931007385254e-01 1.119033917784690857e-01 3.522146642208099365e-01 9.493370354175567627e-02 -1.123558450490236282e-02 -8.626722544431686401e-02 4.788664355874061584e-02 -1.873937807977199554e-02 2.716178074479103088e-03 -2.359857410192489624e-01 8.954076468944549561e-02 -6.121898069977760315e-02 2.300453335046768188e-01 -6.047925911843776703e-03 1.663667708635330200e-01 8.586047589778900146e-02 8.308722823858261108e-02 2.236233837902545929e-02 -1.145627498626708984e-01 -1.629499346017837524e-02 -2.385381981730461121e-02 -1.211547702550888062e-01 1.110864356160163879e-01 8.371583819389343262e-01 2.054733596742153168e-02 9.471424669027328491e-02 -1.411203145980834961e-01 6.803303956985473633e-03 -8.133754134178161621e-02 -1.773711442947387695e-01 5.807289853692054749e-03 5.497199296951293945e-02 6.604564189910888672e-02 1.097174733877182007e-02 -1.649101637303829193e-02 -6.668724119663238525e-02 -1.228470355272293091e-02 -9.556885063648223877e-02 -6.990137044340372086e-03 -3.618677258491516113e-01 3.428417816758155823e-02 1.624310165643692017e-01 -9.661564975976943970e-02 6.759622097015380859e-01 1.334911882877349854e-01 1.298156231641769409e-01 -3.130244612693786621e-01 -3.080413043498992920e-01 1.564911484718322754e+00
-4.497845768928527832e-01 6.279724091291427612e-02 -6.276310086250305176e-01 7.952714711427688599e-02 4.217469990253448486e-01 7.946003973484039307e-02 -2.998004294931888580e-02 -1.796197444200515747e-01 4.926482215523719788e-02 1.291916240006685257e-02 4.289096221327781677e-02 1.384706608951091766e-02 1.063769124448299408e-02 1.918025165796279907e-01 2.295093238353729248e-01 -3.212597593665122986e-02 9.472214579582214355e-01 6.219292059540748596e-02 -1.815085671842098236e-02 -2.787166357040405273e+00 -1.174206612631678581e-03 3.189674392342567444e-02 3.473857045173645020e-02 3.227429836988449097e-02 1.992678828537464142e-02 6.591157615184783936e-02 7.903857156634330750e-03 2.728982865810394287e-01 3.067059628665447235e-02 -1.496933847665786743e-01 9.605371206998825073e-02 -2.199840694665908813e-01 -2.521971799433231354e-02 -1.336355209350585938e-01 3.722292780876159668e-01 -3.520651161670684814e-02 -2.174976468086242676e-01 1.896496117115020752e-02 -1.143258213996887207e-01 -7.775931805372238159e-02 -6.152607798576354980e-01 -6.521312892436981201e-02 -2.053836286067962646e-01 -9.730882197618484497e-02 -1.397034078836441040e-01 1.037021540105342865e-02 1.775018721818923950e-01 1.511522382497787476e-01 -1.036404073238372803e-01 1.651221156120300293e+00 -1.042935103178024292e-01 1.429848074913024902e-01 -7.480645179748535156e-01 1.339876651763916016e-01 -6.643268465995788574e-02 6.955732703208923340e-01 -6.181707605719566345e-02 6.101561188697814941e-01 -1.412009261548519135e-02 -8.134694695472717285e-01 2.570636868476867676e-01 1.164634668384678662e-04 2.231110036373138428e-01 -2.264575213193893433e-01 1.515707820653915405e-01 -2.585680484771728516e-01 -1.468415111303329468e-01 3.782197535037994385e-01 6.583535671234130859e-02 -2.660476416349411011e-02 -8.318848013877868652e-01 -2.573310136795043945e-01 2.600726783275604248e-01 8.913780748844146729e-02 7.266151905059814453e-02 5.711503326892852783e-02 7.200241833925247192e-02 6.414630264043807983e-02 -8.358252048492431641e-02 -3.099763989448547363e-01 -9.748040884733200073e-02 -6.093606725335121155e-02 4.132302105426788330e-01 1.391831338405609131e-01 -1.376605927944183350e-01 3.009995222091674805e-01 -6.705798208713531494e-02 2.901630103588104248e-01 1.737945526838302612e-01 -6.878441572189331055e-02 1.058297231793403625e-01 3.890627026557922363e-01 3.853250443935394287e-01 1.084047630429267883e-01 -3.246956691145896912e-02 5.110239237546920776e-02 7.571389526128768921e-02 -8.834689855575561523e-02 -4.230160638689994812e-02 -3.014114797115325928e-01 5.571543574333190918e-01 1.781171071343123913e-03 -4.813698828220367432e-01 -8.842970430850982666e-02 -2.030358314514160156e-01 1.392649710178375244e-01 1.803924888372421265e-01 -1.147395968437194824e-01 4.249842166900634766e-01 1.616187207400798798e-02 -8.366724848747253418e-02 -1.432131379842758179e-01 3.240779638290405273e-01 1.576741971075534821e-02 -5.975263938307762146e-02 -1.339270710945129395e+00 -5.333461984992027283e-02 1.638091802597045898e-01 -1.250047683715820312e-01 -3.709536194801330566e-01 1.157127320766448975e-02 -4.951914027333259583e-02 -2.011487632989883423e-01 7.685276120901107788e-02 1.863455623388290405e-01 2.295935302972793579e-01 -7.591926306486129761e-02 7.460186257958412170e-03 5.855635739862918854e-03 -5.868026637472212315e-04 9.695619344711303711e-02 2.189562022686004639e-01 7.459245389327406883e-04 3.290985524654388428e-01 1.611359268426895142e-01 1.885149627923965454e-03 6.765577942132949829e-02 -1.552387028932571411e-01 5.001098513603210449e-01 -1.650097668170928955e-01 2.774015627801418304e-02 1.829317212104797363e-02 6.502577662467956543e-02 -7.695960253477096558e-02 -2.592078149318695068e-01 5.387462973594665527e-01 -1.301566213369369507e-01 -9.567232802510261536e-03 -4.388477802276611328e-01 -6.400793045759201050e-02 1.860526949167251587e-01 -8.510559052228927612e-02 -9.156862273812294006e-03 5.944855511188507080e-02 1.141560822725296021e-01 1.170521676540374756e-01 -2.752533257007598877e-01 -5.482777580618858337e-02 8.237443119287490845e-02 1.803379803895950317e-01 -1.091902181506156921e-01 1.031447499990463257e-01 2.927418053150177002e-01 2.053945362567901611e-01 -1.467453539371490479e-01 3.752475604414939880e-02 6.866142898797988892e-02 2.515429556369781494e-01 -5.434278398752212524e-03 4.312513023614883423e-02 -5.210161805152893066e-01 6.947241723537445068e-02 -1.217543259263038635e-01 1.350402086973190308e-01 3.727472573518753052e-02 -2.108013480901718140e-01 3.887531459331512451e-01 3.702482581138610840e-02 6.070234999060630798e-02 -1.084859445691108704e-01 2.236064895987510681e-02 -2.959059737622737885e-02 -1.176556274294853210e-01 3.902889788150787354e-01 -1.094990372657775879e-01 9.216240048408508301e-02 1.146167516708374023e-01 -9.534833952784538269e-03 3.770207464694976807e-01 9.485445171594619751e-02 -2.006401866674423218e-01 -3.292085602879524231e-02 1.612013280391693115e-01 -1.208928301930427551e-01 -3.232949376106262207e-01 4.600948467850685120e-02 -6.754459440708160400e-02 -2.309515178203582764e-01 4.988558590412139893e-02 3.946246951818466187e-02 -1.223524585366249084e-01 1.318527102470397949e+00 2.000223845243453979e-01 3.230796158313751221e-01 -2.024389356374740601e-01 -1.263975262641906738e+00 3.624563515186309814e-01 -1.811875030398368835e-02 7.965336740016937256e-02 -1.516506373882293701e-01 1.809403896331787109e-01 7.520969212055206299e-02 -1.762657426297664642e-02 -1.637589186429977417e-01 1.053228303790092468e-01 -8.792592585086822510e-02 -6.652001291513442993e-02 -2.335204184055328369e-01 2.859392464160919189e-01 -1.556890010833740234e-01 2.250750362873077393e-01 -2.342384867370128632e-02 -3.150278702378273010e-02 8.051185868680477142e-03 -1.586748473346233368e-02 -1.350935995578765869e-01 1.330759674310684204e-01 1.701319664716720581e-01 -1.068770885467529297e+00 -3.790213540196418762e-02 7.763049006462097168e-02 1.397559344768524170e-01 -6.423740088939666748e-02 -1.973632276058197021e-01 2.088174074888229370e-01 4.177367314696311951e-02 3.058698177337646484e-01 9.413801878690719604e-02 -3.922945857048034668e-01 -4.362556934356689453e-01 -8.027146011590957642e-02 -8.579591512680053711e-01 2.479018568992614746e-01 -1.070709973573684692e-01 -1.417352408170700073e-01 1.757471412420272827e-01 -2.008825391530990601e-01 -3.223245218396186829e-02 5.519201233983039856e-02 3.981860280036926270e-01 -5.374621227383613586e-02 3.555563390254974365e-01 -1.800189018249511719e-01 -5.718002840876579285e-02 6.078118681907653809e-01 -1.947569474577903748e-02
-6.144809126853942871e-01 5.527018755674362183e-02 7.613306641578674316e-01 -7.404204457998275757e-02 -2.124206423759460449e-01 1.440782696008682251e-01 -4.731512814760208130e-02 -1.854232698678970337e-01 -1.600108109414577484e-02 3.237773105502128601e-02 -2.272947877645492554e-02 6.647577136754989624e-02 -1.156034767627716064e-01 -3.664822578430175781e-01 4.531340301036834717e-01 -3.895675996318459511e-03 4.890938401222229004e-01 5.596745014190673828e-02 1.046738028526306152e-01 1.031245708465576172e+00 -4.736424610018730164e-02 -7.610867731273174286e-03 -3.947496116161346436e-01 -1.420994382351636887e-02 2.449285425245761871e-02 1.032302901148796082e-02 -3.230238333344459534e-02 3.376331627368927002e-01 1.141271144151687622e-01 8.148770034313201904e-02 1.755476444959640503e-01 1.820011138916015625e-01 1.910271495580673218e-02 -3.847117349505424500e-02 -6.188959479331970215e-01 -7.273145765066146851e-02 3.570487201213836670e-01 -8.767545223236083984e-01 5.034340023994445801e-01 -5.402066558599472046e-02 9.081840515136718750e-01 -8.408736903220415115e-04 7.913780212402343750e-02 -6.269345432519912720e-02 -1.032759696245193481e-01 -5.951729603111743927e-03 3.467742800712585449e-01 -1.910058856010437012e-01 -4.894799366593360901e-02 -8.807359933853149414e-01 -1.323574483394622803e-01 1.969760358333587646e-01 -4.858287572860717773e-01 -4.359953477978706360e-02 4.849918186664581299e-02 7.161906957626342773e-01 2.831117995083332062e-02 1.495479792356491089e-01 8.493985235691070557e-02 1.185205280780792236e-01 1.576705276966094971e-01 -6.390679627656936646e-02 3.260610997676849365e-01 -1.787324696779251099e-01 1.536003351211547852e-01 -1.735538691282272339e-01 -6.519952416419982910e-02 3.128806352615356445e-01 9.111299179494380951e-03 -1.596576161682605743e-02 -9.942116141319274902e-01 -3.844890892505645752e-01 -1.006309017539024353e-01 5.817370489239692688e-02 4.984697327017784119e-02 1.194824352860450745e-01 -6.007177010178565979e-02 6.647018343210220337e-02 1.684409799054265022e-03 -3.529476225376129150e-01 -1.774793863296508789e-01 -4.009540379047393799e-02 1.182711683213710785e-02 -6.940656155347824097e-02 3.558119758963584900e-02 3.224940896034240723e-01 3.632040321826934814e-01 2.328088879585266113e-01 2.084499001502990723e-01 -9.246099740266799927e-02 2.000844478607177734e-01 -7.759118676185607910e-01 5.327339097857475281e-02 1.614485085010528564e-01 -8.463794738054275513e-02 2.446268796920776367e-01 1.781763136386871338e-01 -1.816933900117874146e-01 8.911646902561187744e-02 -1.204966902732849121e-01 3.156334459781646729e-01 3.921191021800041199e-02 2.031035274267196655e-01 -1.970538944005966187e-01 -2.139326483011245728e-01 1.324090212583541870e-01 1.013743132352828979e-01 -2.039443105459213257e-01 4.362920522689819336e-01 1.732995361089706421e-02 -6.569493561983108521e-02 -3.820157377049326897e-03 -1.722632050514221191e-01 7.221181690692901611e-02 -2.099484577775001526e-02 5.176909565925598145e-01 -1.173265576362609863e-01 1.582860350608825684e-01 -1.568447500467300415e-01 1.196420788764953613e+00 4.565372690558433533e-02 -2.063470892608165741e-02 -1.817140281200408936e-01 2.988193556666374207e-02 4.802775681018829346e-01 1.086320430040359497e-01 2.316029667854309082e-01 9.344090521335601807e-02 -7.292661070823669434e-02 6.538379192352294922e-02 1.046970412135124207e-01 3.289469182491302490e-01 2.695017755031585693e-01 2.045317441225051880e-01 1.790631860494613647e-01 -2.613249421119689941e-01 4.988044966012239456e-03 2.788396924734115601e-02 6.163191199302673340e-01 5.166190862655639648e-02 1.775791682302951813e-02 8.840430527925491333e-02 1.069383546710014343e-01 2.496726997196674347e-02 -9.387648850679397583e-02 4.276094958186149597e-02 4.660152494907379150e-01 4.475059732794761658e-02 -4.464956820011138916e-01 -2.992896735668182373e-01 -4.152094200253486633e-02 -1.752715408802032471e-01 3.746599704027175903e-02 1.561819165945053101e-01 1.182333454489707947e-01 -4.938635975122451782e-02 -2.821810543537139893e-01 3.648038804531097412e-01 -1.230913281440734863e+00 -1.523794382810592651e-01 -1.961671262979507446e-01 -3.109012730419635773e-02 3.635758757591247559e-01 1.615282446146011353e-01 -3.367186710238456726e-02 -9.665887337177991867e-04 4.836897179484367371e-02 2.264556735754013062e-01 -4.474696889519691467e-02 -2.512027919292449951e-01 -4.836037158966064453e-01 7.017994672060012817e-02 -1.124996244907379150e-01 6.155452504754066467e-02 2.738387584686279297e-01 -8.077690750360488892e-02 2.711351588368415833e-02 1.237470004707574844e-02 7.576338201761245728e-02 7.674024254083633423e-02 6.745103746652603149e-02 -3.442664444446563721e-02 -1.612847596406936646e-01 6.164252161979675293e-01 -1.707207709550857544e-01 -3.049739636480808258e-02 1.667407155036926270e-01 5.371683835983276367e-02 2.763012647628784180e-01 1.899220049381256104e-01 -2.259877622127532959e-01 2.259469032287597656e-02 -2.600086629390716553e-01 -1.519947946071624756e-01 -2.717779874801635742e-01 8.894252032041549683e-02 -1.156438514590263367e-01 -3.198523223400115967e-01 5.741760134696960449e-03 5.840154364705085754e-02 -2.140538990497589111e-01 2.167766541242599487e-01 1.065335124731063843e-01 4.388309717178344727e-01 -2.107067555189132690e-01 3.091763556003570557e-01 -1.442723870277404785e+00 -6.481761485338211060e-02 6.265150010585784912e-02 -3.112940788269042969e-01 -1.196244657039642334e-01 1.525530125945806503e-02 5.615651607513427734e-02 -1.206980720162391663e-01 4.594454914331436157e-02 3.640391528606414795e-01 -5.818758532404899597e-02 -2.573371827602386475e-01 2.377015352249145508e-01 -1.271397620439529419e-01 -4.493139311671257019e-02 -5.796830356121063232e-02 -8.980622142553329468e-02 -3.732528537511825562e-02 4.115219786763191223e-02 -1.754554957151412964e-01 -5.560352653264999390e-02 1.102657839655876160e-01 7.135736346244812012e-01 1.034346222877502441e-01 1.075705699622631073e-02 2.788973748683929443e-01 2.930371649563312531e-02 -2.726886272430419922e-01 1.710138320922851562e-01 3.208884969353675842e-02 2.824694514274597168e-01 2.190250307321548462e-01 -3.641478121280670166e-01 1.575592160224914551e-01 6.471938639879226685e-02 1.259810805320739746e+00 2.667305767536163330e-01 -3.748220205307006836e-02 -1.659762347117066383e-06 2.418188899755477905e-01 1.651605665683746338e-01 2.472021384164690971e-03 4.401172697544097900e-02 4.143008887767791748e-01 -7.325091958045959473e-02 2.999664843082427979e-02 2.136051356792449951e-01 1.958687789738178253e-02 5.524784326553344727e-01 -1.741400361061096191e-01
