6.196448206901550293e-01 -5.873656868934631348e-01 -1.650397032499313354e-01 2.051607072353363037e-01 5.670610666275024414e-01 -1.882483243942260742e+00 -1.426200121641159058e-01 1.515500545501708984e+00 1.912282705307006836e+00 -9.811790287494659424e-02
8.669026196002960205e-02 -8.122204989194869995e-02 1.529750227928161621e-01 1.614775061607360840e+00 3.383012771606445312e+00 1.474659681320190430e+00 -2.014721870422363281e+00 -1.825526833534240723e+00 2.898935317993164062e+00 5.351166054606437683e-02
-1.509431242942810059e+00 -7.122598588466644287e-02 1.473179936408996582e+00 9.536417722702026367e-01 -8.508924394845962524e-02 -1.277934670448303223e+00 -7.871866226196289062e-02 2.157515734434127808e-01 2.968608140945434570e-01 5.854251384735107422e-01
-4.877729415893554688e-01 -1.714937090873718262e+00 -1.285414814949035645e+00 -6.342888474464416504e-01 1.436838150024414062e+00 -7.723424434661865234e-01 -3.694082796573638916e-01 -1.220321297645568848e+00 3.197628557682037354e-01 3.113717079162597656e+00
-1.901567913591861725e-02 7.719647139310836792e-02 1.640076637268066406e+00 5.161343216896057129e-01 5.860750675201416016e-01 -7.425289601087570190e-02 -1.342724561691284180e+00 1.674986243247985840e+00 -2.474070072174072266e+00 1.274911284446716309e+00
4.012616574764251709e-01 -2.042906284332275391e+00 2.220365218818187714e-03 3.747999370098114014e-01 -1.794446706771850586e-01 -7.214377075433731079e-02 -1.185387149453163147e-01 -1.429227948188781738e+00 -2.296821355819702148e+00 1.459437012672424316e+00
3.157907724380493164e-01 -2.823953628540039062e+00 -2.149843126535415649e-01 -1.294141173362731934e+00 -1.111990571022033691e+00 6.952940821647644043e-01 -8.093236088752746582e-01 -8.818459510803222656e-01 -4.076846688985824585e-02 1.175396561622619629e+00
-3.060871958732604980e-01 1.703515648841857910e+00 -4.847941100597381592e-01 3.801637887954711914e-01 1.660617709159851074e+00 -1.380714654922485352e+00 -8.910033702850341797e-01 6.965975761413574219e-01 1.885300874710083008e-01 3.118628025054931641e+00
-1.091881766915321350e-01 1.605811119079589844e+00 1.781846284866333008e+00 3.445352613925933838e-01 1.759045124053955078e-01 -1.613295637071132660e-02 -1.794059276580810547e+00 -5.036596059799194336e-01 -1.428255558013916016e+00 2.552436351776123047e+00
-5.622462630271911621e-01 1.385293304920196533e-01 -4.096342325210571289e-01 -1.098721146583557129e+00 4.438695609569549561e-01 1.321959733963012695e+00 -1.144196391105651855e+00 -1.902839899063110352e+00 -1.284232139587402344e+00 1.706876158714294434e+00
-2.833068966865539551e-01 -1.190335229039192200e-01 4.951109886169433594e-01 1.206357359886169434e+00 -1.474786847829818726e-01 3.651220500469207764e-01 -7.789910435676574707e-01 2.164655685424804688e+00 2.016143351793289185e-01 2.962140798568725586e+00
-1.159270882606506348e+00 -1.421152710914611816e+00 -1.556815624237060547e+00 9.482395648956298828e-01 -3.489316701889038086e-01 -2.341095507144927979e-01 -1.329992294311523438e+00 -1.120866656303405762e+00 5.006776750087738037e-02 2.596833467483520508e+00
1.135447502136230469e+00 -3.171150982379913330e-01 1.625420153141021729e-01 1.107343956828117371e-01 4.277638196945190430e-01 -2.750243902206420898e+00 -2.846484780311584473e-01 7.104518413543701172e-01 8.007110655307769775e-02 2.635156869888305664e+00
-1.068012356758117676e+00 1.384721279144287109e+00 5.689047574996948242e-01 1.314557433128356934e+00 -1.880584239959716797e+00 -4.333645105361938477e-01 1.785641670227050781e+00 -1.281807065010070801e+00 -2.344285100698471069e-01 4.321457743644714355e-01
-1.676744103431701660e+00 -8.316869735717773438e-01 2.359277009963989258e+00 -1.286334872245788574e+00 1.180760025978088379e+00 -8.183959126472473145e-01 -3.587207198143005371e-01 -9.219321012496948242e-01 1.820115685462951660e+00 -2.967641949653625488e-01
1.323244690895080566e+00 -1.813197970390319824e+00 1.616612792015075684e+00 6.708886623382568359e-01 2.627654373645782471e-01 1.233256936073303223e+00 1.229126095771789551e+00 -2.177609950304031372e-01 1.276550531387329102e+00 -7.341499924659729004e-01
-1.157064318656921387e+00 -5.055372118949890137e-01 -3.424980938434600830e-01 -1.734454393386840820e+00 6.828333735466003418e-01 -1.313345670700073242e+00 1.556248545646667480e+00 1.433184266090393066e+00 -1.350433230400085449e+00 -9.760101437568664551e-01
-2.453562498092651367e+00 9.423591494560241699e-01 -1.048119813203811646e-01 1.649253249168395996e+00 -1.586607217788696289e+00 1.855694651603698730e+00 5.590474009513854980e-01 -2.396514117717742920e-01 4.688355326652526855e-01 -2.209662199020385742e-01
-8.698337674140930176e-01 8.589554429054260254e-01 -1.551149249076843262e+00 7.853394150733947754e-01 -6.305247545242309570e-02 -3.195948153734207153e-02 2.355738162994384766e+00 4.772509336471557617e-01 -7.757877111434936523e-01 3.570172488689422607e-01
5.335029363632202148e-01 2.138186454772949219e+00 6.621339917182922363e-01 3.651095330715179443e-01 1.775000840425491333e-01 1.515229225158691406e+00 1.481642365455627441e+00 -6.058784127235412598e-01 8.975680470466613770e-01 3.003464937210083008e-01
-1.373830676078796387e+00 -2.409543275833129883e+00 3.572496771812438965e-01 1.029908061027526855e+00 6.826163530349731445e-01 -2.326244831085205078e+00 1.108424305915832520e+00 5.885263681411743164e-01 1.238698482513427734e+00 -1.034682631492614746e+00
-3.014655590057373047e+00 2.940729260444641113e-01 -7.400220632553100586e-02 -1.025932788848876953e+00 -1.849279850721359253e-01 1.953308582305908203e+00 9.295583963394165039e-01 1.547124624252319336e+00 -7.092494368553161621e-01 -7.143803238868713379e-01
-3.582147359848022461e-01 -1.530427951365709305e-03 2.008899927139282227e+00 -9.523817896842956543e-01 -1.654075264930725098e+00 2.278532832860946655e-01 1.351008534431457520e+00 -3.574424386024475098e-01 -7.256182432174682617e-01 -6.448445916175842285e-01
-5.112413689494132996e-02 1.754818677902221680e+00 5.232012271881103516e-01 4.690521955490112305e-01 1.499340415000915527e+00 -1.396124958992004395e+00 1.146305084228515625e+00 -1.718879222869873047e+00 -1.851922869682312012e-01 -9.252782464027404785e-01
1.844941973686218262e-01 -7.266311645507812500e-01 -1.314017027616500854e-01 2.231910228729248047e+00 -3.012454509735107422e-01 4.268728196620941162e-01 2.104996204376220703e+00 -4.209176301956176758e-01 5.965700149536132812e-01 -7.859075069427490234e-01
-2.471746683120727539e+00 -9.157568216323852539e-02 -6.011320650577545166e-02 8.493292927742004395e-01 1.723806142807006836e+00 1.288740783929824829e-01 9.811597466468811035e-01 -7.961981743574142456e-02 -2.665246427059173584e-01 -1.629052162170410156e+00
-2.381428241729736328e+00 8.279702067375183105e-01 9.757523536682128906e-01 -4.543193578720092773e-01 -1.132474780082702637e+00 1.419601738452911377e-01 -6.318138837814331055e-01 -3.565582334995269775e-01 9.414532184600830078e-01 -1.418703436851501465e+00
-4.685584306716918945e-01 1.212291002273559570e+00 -1.338590085506439209e-01 -1.367113232612609863e+00 -1.185430049896240234e+00 -4.720590710639953613e-01 9.942672848701477051e-01 -6.220450401306152344e-01 2.226972103118896484e+00 3.725592494010925293e-01
-1.101503133773803711e+00 4.067519009113311768e-01 7.974756956100463867e-01 1.734962686896324158e-02 -9.502679705619812012e-01 2.202996492385864258e+00 2.433576136827468872e-01 -9.540748000144958496e-01 2.397348403930664062e+00 -6.942505389451980591e-02
-2.140722274780273438e+00 -4.617106318473815918e-01 1.047839149832725525e-01 -3.752035498619079590e-01 6.785730719566345215e-01 2.200864553451538086e+00 1.820038437843322754e+00 3.358918428421020508e-01 1.960471510887145996e+00 7.644802927970886230e-01
3.119893372058868408e-01 -8.572248816490173340e-01 1.381349086761474609e+00 1.606596261262893677e-01 -8.364132642745971680e-01 -1.750104188919067383e+00 4.948208928108215332e-01 -1.493450999259948730e+00 1.351187586784362793e+00 -1.379623889923095703e+00
-1.345282196998596191e+00 2.389123141765594482e-01 -1.294909954071044922e+00 2.141335964202880859e+00 -5.470603704452514648e-01 -7.998259067535400391e-01 2.447724342346191406e-01 -9.014343023300170898e-01 1.234086751937866211e+00 -1.801707148551940918e+00
-5.475511550903320312e-01 -7.099677622318267822e-02 2.232418060302734375e+00 -1.673686385154724121e+00 1.484758615493774414e+00 1.330526113510131836e+00 1.599585175514221191e+00 4.075418412685394287e-01 5.170450806617736816e-01 7.743327617645263672e-01
2.045945078134536743e-01 -2.264056801795959473e-01 2.910254299640655518e-01 5.115104913711547852e-01 9.846294298768043518e-03 -9.112486243247985840e-02 6.019901275634765625e+00 -7.012853622436523438e-01 -8.663777709007263184e-01 4.375934302806854248e-01
